tree
version=v4
num_class=1
num_tree_per_iteration=1
label_index=0
max_feature_idx=163
objective=regression
feature_names=location_cluster location lat lon type_house sum min_days amt_reviews avg_reviews total_host geo_k50 has_reviews days_since_last_review review_year review_month log_sum log_min_days log_amt_reviews log_avg_reviews log_total_host dist_to_center dist_to_times_sq sum_per_min_day reviews_per_host_listing is_professional_host id_rank log_id recency_bucket name_len name_word_count name_upper_ratio location_freq type_house_freq location_cluster_freq host_uid_freq id_listing_count id_freq id_mean_sum id_std_sum id_mean_reviews id_mean_min_days id_n_locations id_n_types listing_vitality host_activity_score id_mean_vitality location_cluster_sum_mean location_cluster_sum_std location_sum_mean location_sum_std type_house_sum_mean type_house_sum_std price_zscore_location listing_age_months first_review_days_ago min_booking_value log_min_booking_value annual_review_rate price_per_review host_revenue_proxy log_host_revenue min_days_x_total_host reviews_density geo_k30 geo_k30_freq geo_k30_dist geo_k50_freq geo_k50_dist kw_p_times_square kw_p_near kw_p_manhattan kw_p_queens kw_p_subway kw_p_central kw_p_midtown kw_p_village kw_b_sunny kw_b_spacious kw_b_brooklyn kw_b_bedroom kw_b_cozy kw_b_small kw_b_shared kw_b_basic kw_premium_count kw_budget_count kw_premium_ratio kw_private kw_room kw_apt kw_studio kw_entire kw_luxury kw_modern kw_beautiful kw_quiet kw_near name_has_number name_exclamation name_dash_count name_capital_word_count type_encoded sum_x_type min_days_x_type reviews_x_location_freq sum_rank_in_location price_vs_location_median sum_rank_in_type reviews_rank_in_location host_price_range host_type_diversity no_reviews few_reviews high_price long_min_days very_long_min_days old_or_no_review is_shared dead_listing_score dead_listing_v2 pro_host_x_min_days pro_host_x_no_reviews pro_host_x_high_price log_total_host_x_log_min_days host_scale review_staleness shared_low_price shared_x_price density_0.5km density_1.0km density_2.0km min_days_bucket id_loo_te id_te_mean id_te_median id_te_std id_te_min id_te_max id_te_count id_te_zero_frac id_te_high_frac id_te_q25 id_te_q75 id_te_range id_te_iqr geo_k30_te_mean geo_k30_te_zero_frac geo_k30_te_high_frac geo_k50_te_mean geo_k50_te_zero_frac geo_k50_te_high_frac loc_te_mean loc_te_high_frac loc_te_zero_frac knn_te_k5 knn_te_k5_std knn_te_k10 knn_te_k10_std knn_te_k20 knn_te_k20_std crossTE_location_cluster_x_type_house crossTE_location_x_type_house crossTE_geo_k50_x_type_house crossTE_host_name_x_type_house
feature_infos=[0:4] [0:219] [40.499789999999997:40.91234] [-74.244420000000005:-73.712990000000005] [0:2] [0:760] [1:365] [0:629] [0:20.940000000000001] [1:327] [0:49] [0:1] [-1:2996] [0:2019] [0:12] [0:6.6346333578616861] [0.69314718055994529:5.9026333334013659] [0:6.4457198193855785] [0:3.0883114548470845] [0.69314718055994529:5.7930136083841441] [0.00040459856648029322:0.31705375837545963] [0.00071700767081534183:0.3631403581261724] [0:760] [0:540] [0:1] [5.4539009026205992e-05:0.99994546099097381] [7.8524390853575099:19.42976066605981] [0:4] [0:179] [0:29] [0:1] [1:2964] [875:19013] [284:16193] [1:238] [1:238] [1:238] [0:9999] [0:3500.1785668734101] [0:602.5] [1:1250] [1:19] [1:3] [0:1] [0:25.782879277542314] [0:1] [88.25837320574162:195.32236151423456] [110.91145624961493:316.25036375792024] [38.5:800] [0:1314.9312270488263] [69.875428571428571:211.39367800978278] [100.39493763684294:282.27723057318718] [-2.0883427151603935:9.6984311433452604] [0:125.42372881355932] [-1:6226.7692307692305] [0:277400] [0:12.533219391759038] [0:251.28000000000003] [0:760] [0:228573] [0:12.339615288091416] [1:27840] [0:20.940000000000001] [0:29] [50:3486] [0.00013320895334552243:0.098973013265838641] [38:1963] [7.5071379661701613e-05:0.089331346066362921] [0:1] [0:1] [0:1] [0:1] [0:1] [0:1] [0:1] [0:1] [0:1] [0:1] [0:1] [0:1] [0:1] [0:1] [0:1] none [0:4] [0:4] [0:0.80000000000000004] [0:1] [0:1] [0:1] [0:1] [0:1] [0:1] [0:1] [0:1] [0:1] [0:1] [0:1] [0:1] [0:7] [0:11] [1:3] [0:2280] [1:1095] [0:1141140] [0:1] [0:11.692307692307692] [0.00010519118497869878:0.99606744920455226] [0.033333333333333333:1] [0:7821] [1:3] [0:1] [0:1] [0:1] [0:1] [0:1] [0:1] [0:1] [0:4] [0:4] [1:27840] [0:327] [0:327] [0.48045301391820139:26.142038679294668] [0:4] [0:2] [0:1] [0:760] [1:1012] [1:2406] [3:5445] [0:6] [0.25:365] [0.25:365] [0:365] [0:258.09397513308983] [0:365] [1:365] [1:238] [0:0.80000000000000004] [0:1] [0:365] [0:365] [0:365] [0:321.25] [72.260909090909095:210.5382262996942] [0.055214723926380369:0.47787610619469029] [0.07454545454545454:0.39449541284403672] [74.870744010088274:207.86206896551724] [0.064655172413793108:0.49758120248790599] [0.075031525851197989:0.37931034482758619] [29.333333333333332:365] [0:1] [0:0.75] [0.20000000000000001:365] [0:178.812751223172] [0.5:358] [1.5:179.88062708363012] [3.8999999999999999:332.55000000000001] [9.9146356463563503:171.69026617720644] [64.777777777777771:221.51388888888889] [3:365] [8:274.39999999999998] [0.25:365]
tree_sizes=4610 4183 3871 4183 4091 4186 4586 4188 4508 3942 4668 4751 4766 4346 4917 4663 4507 5404 5171 4208 4016 4588 5064 3862 4774 5450 4095 5409 4336 4521 4369 4521 5117 4216 4381 3963 5051 4717 5364 4382 5183 5469 4945 5462 4547 5136 5363 4795 4560 4307 4243 4216 4294 5064 5151 4478 5483 3885 5509 5481 4163 5464 5050 5515 4999 5497 4142 5496 4859 4738 4748 4824 5496 4581 3805 4893 4668 5517 5496 4480 4504 4651 4787 5140 5478 4818 5502 3715 5044 4983 5500 5243 5150 5067 5483 4493 3799 5496 4504 4220 4183 4390 5513 5367 5448 5407 4487 3976 5072 5118 5145 4409 4603 5500 5484 4622 3443 2364 4588 4068 3873 3325 3823 4301 3278 5259 5489 3469 2522 3019 5482 2695 2978 2812 3741 3612 3555 2785 3710 4327 4142 4667 5438 4044 3237 4203 4816 4329 3117 4673 3252 5456 3656 5059 2426 2490 2612 5413 3196 4076 3457 5287 2619 4277 3841 3384 3262 2248 4188 2553 3426 4518 3690 3967 3525 3795 5472 3376 3616 4381 4700 5095 4369 4289 3969 3748 4293 5438 1602 3529 4385 2851 1522 3518 2535 2122 3243 4721 3184 4014 2094 2253 5099 2766 3127 3535 1582 3021 2335 3345 3184 2866 2986 1764 2009 2937 1671 1678 1677 3687 2093 1526 3767 2524 3663 4088 3336 2406 1777 3780 3418 2367 3093 4098 2616 3199 4358 1891 3033 3003 3428 2610 5289 5456 2368 2327 4619 2431 2184 2923 4474 3129 4222 3071 2377 2299 1442 2412 4865 2779 2098 2840 4102 3923 2450 2853 4696 2255 3206 4773 4284 3896 2737 2958 2677 2354 1597 2521 3756 2607 3119 2725 3946 2008 3756 4004 2359 3920 4532 1703 2510 4249 3365 2355 4881 3493 3947 3097 2761 2586 1593 3053 2779 4958 2846 3365 3618 2444 3246 3535 2577 1594 5302 3088 3295 2110 3525 3683 2216 5109 3307 1096 2812 3948 3407 2520 2508 2751 3596 1345 1765 3880 2451 3448 1929 1674 3031 2442 3865 2898 3842 3441 3532 3804 2501 2855 1594 2451 2440 3370 2257 2506 1535 3116 3022 2696 2287 5357 3871 3808 4009 2958 3269 2263 4270 2857 3208 3120 3865 2195 3139 2860 2185 2626 2430 4622 2455 1534 2248 3915 2789 5184 2355 2750 3537 4879 2857 3389 1603 3083 3366 3192 3298 3288 3520 3876 3305 3091 3796 1954 3753 1676 4047 2239 2788 1269 2271 2887 3378 4045 2545 2100 1919 2784 2084 2354 2896 2942 3435 3245 1942 2168 3908 3096 2091 2274 2830 5499 2873 3539 1930 3795 3351 4460 4084 2804 3718 3513 3993 2011 2659 2267 3335 4152 3447 3039 2779 3470 2192 3800 2448 2194 2563 2091 3044 3821 1673 2865 4911 4787 3062 3546 2874 5395 3021 3785 3300 3860 2194 1785 2530 2099 3547 2785 2949 2375 2366 2455 3518 3422 2703 4050 2685 4636 3940 3294 3113 3367 2426 3227 2336 2284 2632 1688 4541 3303 3377 2858 2837 2525 4837 4615 4401 4423 3723 3315 2616 3017 4024 2612 3542 3467 3873 2608 2436 2901 5218 1671 3199 2731 3221 2622 2531 1425 2517 3651 2181 3956 3113 4639 4587 2790 2101 2946

Tree=0
num_leaves=54
num_cat=0
split_feature=142 133 142 133 133 134 142 139 133 142 155 155 133 137 142 141 154 155 133 137 133 155 144 137 157 133 135 60 136 154 60 155 5 133 155 23 133 136 141 29 134 133 163 58 155 134 133 142 60 133 135 136 142
split_gain=1.73754e+08 1.84117e+07 1.41847e+07 2.55778e+06 2.13828e+06 2.0468e+06 1.97372e+06 556325 379835 311826 305798 228869 202173 193772 186794 170189 191647 202596 169391 154476 151071 121006 184923 113737 107200 97023.1 84507.2 75863.5 71446.7 64783.8 172582 79162.3 62736.4 56700.6 55401.7 40377.9 31030.4 28330.2 27443.7 23426.5 16652.9 13816.2 12406.5 7210.85 4669.8 3245.16 2684.99 2556.83 773.975 453.731 278.732 226.194 98.3721
threshold=178.62500000000003 275.87500000000006 82.625000000000014 224.25000000000003 326.10000000000008 130.25000000000003 36.250000000000007 0.22500000000000003 185.20000000000002 111.87500000000001 125.23450003851968 45.404405019219283 301.04691876750707 318.50000000000006 61.125000000000007 244.50000000000003 202.50000000000003 67.804719593970489 347.07352941176475 17.500000000000004 154.16666666666671 81.216006696867694 61.375000000000007 206.50000000000003 155.97475718445324 156.16666666666671 197.56855773271391 5.6920457965633808 1.0000000180025095e-35 250.70000000000002 11.191202851252969 112.39483962073389 48.500000000000007 101.25000000000001 117.40715480444345 7.354166666666667 240.25000000000003 95.500000000000014 166.25000000000003 9.5000000000000018 139.25000000000003 260.33333333333343 96.853571428571442 150.50000000000003 126.18272450586625 161.25000000000003 172.16666666666671 260.12500000000006 5.8622086995319824 175.50000000000003 51.914973752473209 1.5000000000000002 169.75000000000003
decision_type=2 2 2 2 2 2 2 2 2 2 2 2 2 2 2 2 2 2 2 2 2 2 2 2 2 2 2 2 2 2 2 2 2 2 2 2 2 2 2 2 2 2 2 2 2 2 2 2 2 2 2 2 2
left_child=2 3 6 7 12 9 19 8 11 37 15 -2 29 36 50 16 17 -5 -6 -1 40 22 -10 -23 32 -13 34 -18 35 30 31 -3 -15 42 -9 -11 -12 51 45 -35 -7 -17 -30 48 -14 -22 52 -38 -42 -48 -8 -4 -40
right_child=1 4 5 10 18 20 14 26 21 28 13 25 44 24 -16 41 27 -19 -20 -21 38 23 -24 -25 -26 -27 -28 -29 33 -31 -32 -33 -34 39 -36 -37 47 -39 46 -41 43 -43 -44 -45 -46 -47 49 -49 -50 -51 -52 -53 -54
leaf_value=171.65226744447176 173.82339188945957 179.54334152173774 174.74326788056823 175.41916108336562 181.52223848331937 175.47990103237936 172.85062796088121 177.42025498720542 177.34424692243599 175.3688837296896 178.38342641903807 175.92470731219015 180.61385142720832 178.39922990724605 173.53024047326738 178.91830060792699 178.34896229394442 178.18638121355508 182.18305212440444 172.22228653842438 176.14600829693401 177.21218438697346 175.13316610446179 177.99086766629711 178.06725908730581 176.94767225347175 181.03667514971167 179.67436532517959 173.66881828652566 180.73057026865646 177.81648768967696 180.34449406945819 180.43052159092591 174.99630063366385 179.53814749512577 176.96439539183112 178.84462920733085 174.53079495188877 176.46451994435353 176.0698381269014 175.88475400487943 179.45492838819061 174.80371189989455 176.44888771395247 181.07624818619027 176.36910549268353 176.6374926235228 179.43043240513398 175.64836585827462 176.73018852679294 174.22888775865596 174.00411409885953 176.54936004810816
leaf_weight=1550 23 230 39 23 959 190 1009 20 199 28 83 105 511 22 874 212 79 417 1192 1096 217 251 38 550 26 364 30 119 44 251 34 562 268 475 32 25 102 231 57 24 252 210 44 21 521 108 89 139 67 97 21 789 62
leaf_count=1550 23 230 39 23 959 190 1009 20 199 28 83 105 511 22 874 212 79 417 1192 1096 217 251 38 550 26 364 30 119 44 251 34 562 268 475 32 25 102 231 57 24 252 210 44 21 521 108 89 139 67 97 21 789 62
internal_value=176.719 179.919 173.458 178.24 181.223 175.117 172.418 177.382 177.249 174.454 179.051 176.563 180.531 179.578 173.168 178.725 178.399 178.034 181.896 171.883 176.091 177.574 176.974 177.75 180.126 176.715 179.746 179.178 174.994 180.206 180.033 180.123 180.295 174.898 178.806 176.094 179.017 174.134 176.407 175.044 175.718 179.203 174.154 175.861 180.859 176.216 176.613 179.212 175.826 176.685 172.871 174.032 176.503
internal_weight=0 7572 7409 3312 4260 2859 4550 1612 1530 1699 1700 492 2109 640 1904 1060 638 440 2151 2646 1160 1038 237 801 316 469 82 198 640 1077 826 792 290 587 52 53 324 1059 630 499 530 422 88 340 1032 325 305 241 319 186 1030 828 119
internal_count=14981 7572 7409 3312 4260 2859 4550 1612 1530 1699 1700 492 2109 640 1904 1060 638 440 2151 2646 1160 1038 237 801 316 469 82 198 640 1077 826 792 290 587 52 53 324 1059 630 499 530 422 88 340 1032 325 305 241 319 186 1030 828 119
is_linear=0
shrinkage=1


Tree=1
num_leaves=48
num_cat=0
split_feature=133 142 133 142 133 142 133 139 139 142 133 133 133 154 134 133 133 133 60 154 154 135 144 139 154 133 154 23 135 135 163 154 134 163 154 134 157 133 157 134 154 157 60 134 154 133 142
split_gain=1.63129e+08 1.72722e+07 1.36858e+07 2.98987e+06 2.11921e+06 1.5172e+06 1.50907e+06 434427 305486 294101 273473 255356 200148 199000 186276 166277 155819 154947 99335.3 92159.6 80221.4 189331 125867 76135.9 73173 58118.9 54049.1 45156 81091.8 73627.4 33816 32380.8 32316.1 33599.3 20626 78493.4 19191.3 13312.6 12019.3 11252.8 11207.4 11166.2 9953.99 6349.9 4724.25 2003.98 643.297
threshold=180.25000000000003 90.250000000000014 275.37500000000006 44.625000000000007 326.10000000000008 140.37500000000003 230.16666666666671 0.48333333333333339 0.18333333333333338 21.125000000000004 69.250000000000014 156.16666666666671 300.08333333333343 47.100000000000009 210.25000000000003 112.25000000000001 348.14285714285717 257.74715909090918 11.276701141356435 48.500000000000007 101.30000000000003 150.64333968279342 77.750000000000014 0.48333333333333339 260.50000000000006 125.08333333333336 62.900000000000006 0.61250000000000016 154.21019146564274 172.07611082831761 254.92307692307693 109.10000000000001 173.50000000000003 196.05555555555557 181.90000000000003 297.50000000000006 136.10866980795456 101.25000000000001 132.27055605734759 128.75000000000003 90.500000000000014 150.31270737994629 6.2205822651801137 315.25000000000006 65.100000000000009 80.166666666666671 57.125000000000007
decision_type=2 2 2 2 2 2 2 2 2 2 2 2 2 2 2 2 2 2 2 2 2 2 2 2 2 2 2 2 2 2 2 2 2 2 2 2 2 2 2 2 2 2 2 2 2 2 2
left_child=1 3 6 9 12 15 8 11 14 -1 46 20 36 -8 27 23 -6 34 26 -16 22 -22 -7 37 -20 -9 -14 28 -2 -29 -21 40 33 -13 41 -36 -4 42 -33 -17 -19 -15 -3 -38 -34 -12 -5
right_child=2 5 4 10 16 7 13 25 -10 -11 45 32 18 17 19 39 -18 31 24 30 21 -23 -24 -25 -26 -27 -28 29 -30 -31 -32 38 44 -35 35 -37 43 -39 -40 -41 -42 -43 -44 -45 -46 -47 -48
leaf_value=-4.8621956410200031 0.64293524171158511 -2.5220820738173355 3.1346685846037414 -3.6473087025806308 4.6903997391905294 -0.92664858837611974 -0.41178820623801304 0.9906692517322041 3.4496113422938754 -4.1837654410248595 -2.9288350636370768 -0.38720342954078057 2.1292603302001956 1.9373206394517812 -0.66058914682139513 -1.5964911234071575 5.3215068284324971 2.4382942315136513 1.0844509516443523 1.2710012194643339 -0.87526630179836895 1.4365020773751396 -2.3836687810511528 -0.62278806647946749 3.344717393875122 3.3409391106499564 4.044647386744165 0.49288217244726235 2.6343135261535644 -0.96871283791281959 2.5454842210852577 2.5966463748407813 -0.21103378440652576 0.63559854545900896 2.0576525364171214 3.7647527755073136 3.3449399624248541 -1.987513613506239 3.1079752526895064 -1.2175775612725153 1.6662108396666664 0.98374509572982782 -1.6665851623256032 4.2195583734167625 0.089796820124041055 -2.6092588784002486 -3.2888866702075252
leaf_weight=1854 94 344 646 509 1060 189 23 20 39 1155 382 505 24 543 20 288 1101 120 25 505 392 32 76 28 37 24 1148 591 21 30 20 315 53 28 198 32 199 193 224 186 59 21 38 80 291 617 630
leaf_count=1854 94 344 646 509 1060 189 23 20 39 1155 382 505 24 543 20 288 1101 120 25 505 392 32 76 28 37 24 1148 591 21 30 20 315 53 28 198 32 199 193 224 186 59 21 38 80 291 617 630
internal_value=0 -2.97648 3.2835 -3.99389 4.34841 -1.02534 1.66928 -0.440857 0.922372 -4.60621 -3.12687 -0.525234 3.67129 2.30851 0.83755 -1.89542 5.01887 2.35063 3.94263 1.25734 -0.956183 -0.691927 -1.36652 -2.2316 2.52544 2.40406 4.01096 0.522859 1.06431 0.417956 1.33374 2.68302 -0.184561 -0.330216 2.04108 2.34058 3.29774 -2.30631 2.82517 -1.4564 2.21547 1.90721 -2.45063 3.63795 0.0420241 -2.73986 -3.45822
internal_weight=0 7834 7175 5147 4320 2687 2855 1610 1320 3009 2138 1566 2159 1535 1281 1077 2161 1512 1234 545 689 424 265 603 62 44 1172 736 115 621 525 718 877 533 794 230 925 575 539 474 179 564 382 279 344 999 1139
internal_count=15009 7834 7175 5147 4320 2687 2855 1610 1320 3009 2138 1566 2159 1535 1281 1077 2161 1512 1234 545 689 424 265 603 62 44 1172 736 115 621 525 718 877 533 794 230 925 575 539 474 179 564 382 279 344 999 1139
is_linear=0
shrinkage=0.03


Tree=2
num_leaves=44
num_cat=0
split_feature=132 132 132 132 132 132 142 139 139 154 132 132 132 134 139 142 137 132 132 139 154 135 157 135 123 154 60 136 20 48 157 142 163 135 135 163 35 157 55 132 143 154 134
split_gain=1.56063e+08 1.69623e+07 1.21767e+07 2.48517e+06 1.90831e+06 1.77339e+06 1.58341e+06 516831 418898 289175 260600 206281 200803 199028 188758 149858 118928 116117 85618.3 68928.2 68552.1 61129.9 57347.4 57146.5 53893.2 42999.9 177089 42935.1 41941.4 25527.7 24805.2 23957.6 23513.2 35440.3 29470.3 23402.3 22841.2 14289.2 12980.4 11748.4 6853.75 3706.35 2780.67
threshold=168.16666666666671 275.87500000000006 75.166666666666671 221.65000000000003 329.16666666666669 115.07142857142858 35.125000000000007 0.18333333333333338 0.48333333333333339 44.300000000000004 189.08333333333334 305.20000000000005 144.08333333333334 251.25000000000003 0.31666666666666671 57.125000000000007 17.500000000000004 349.12500000000006 98.125000000000014 0.48333333333333339 154.70000000000002 69.235320427718662 126.99570858341987 81.788110769426581 4.213398387402659 257.10000000000008 11.191202851252969 1.0000000180025095e-35 0.022183040808646737 297.17169811320758 152.423177371273 239.75000000000003 169.26785714285717 16.69813551013387 158.77914411380647 141.45000000000002 2.5000000000000004 132.02721307134291 119.50000000000001 84.250000000000014 103.50000000000001 65.100000000000009 86.750000000000014
decision_type=2 2 2 2 2 2 2 2 2 2 2 2 2 2 2 2 2 2 2 2 2 2 2 2 2 2 2 2 2 2 2 2 2 2 2 2 2 2 2 2 2 2 2
left_child=2 3 6 7 11 14 16 10 12 -5 24 25 27 31 18 -8 -1 -6 42 -17 21 -12 28 -22 30 26 37 -7 -15 -24 -2 -11 34 -34 -14 -29 -9 -3 -33 -16 -21 -13 -4
right_child=1 4 5 9 17 8 15 36 -10 13 20 41 32 22 39 19 -18 -19 -20 40 23 -23 29 -25 -26 -27 -28 35 -30 -31 -32 38 33 -35 -36 -37 -38 -39 -40 -41 -42 -43 -44
leaf_value=-4.7697251893045314 0.0015847370201719326 3.0731904488181296 -2.6901581644933792 -1.1878052200376987 4.5880451404574449 0.024322198927402495 -3.6933663633612746 4.5194692064368205 2.6003606193296367 1.5107657951820552 0.83936574932503494 2.6913194644066598 -0.57010983332991594 1.3134265728654533 -0.81705577135086049 -3.1493592102877743 -4.2509220437701227 5.1726224417821953 -1.9427071433019087 -2.1072089004516599 0.85025772109974262 0.082977883593480586 2.779171320558544 1.7417871775496907 1.1754674868400279 3.7795485884948463 0.88923734256199427 -1.3917594145296268 2.3161462137599784 1.3449576734459918 0.96210999228358274 1.4889324068957632 -0.51774295141530591 0.92128033757209771 -1.5537004318237304 -0.8574119264052974 2.4610458576679228 3.5247682579336401 2.0528545098587614 0.1278195216178894 -1.0122491678984269 3.9824287960252591 -2.4041541524069294
leaf_weight=1594 754 554 493 21 978 22 950 20 28 251 351 28 609 55 21 855 1038 1088 343 21 169 133 499 116 36 254 32 615 528 20 22 88 40 21 27 105 28 358 351 22 20 1005 576
leaf_count=1594 754 554 493 21 978 22 950 20 28 251 351 28 609 55 21 855 1038 1088 343 21 169 133 499 116 36 254 32 615 528 20 22 88 40 21 27 105 28 358 351 22 20 1005 576
internal_value=0 2.98262 -3.10959 1.41156 4.23921 -1.60071 -4.09244 0.559604 -0.862013 2.17487 0.462773 3.6188 -0.934653 2.21619 -2.34219 -3.40497 -4.57019 4.90295 -2.40177 -3.08788 0.857432 0.633307 2.47252 1.22749 0.0872339 3.31946 3.18409 -1.27799 2.22876 2.73195 0.0324164 1.79789 -0.565243 -0.00237842 -0.618964 -1.31771 3.53412 3.26143 1.95069 -0.356823 -1.67852 3.95533 -2.54321
internal_weight=0 7739 7400 3442 4297 2922 4478 1629 1467 1813 1581 2231 1439 1792 1455 1846 2632 2066 1412 896 769 484 1102 285 812 1198 944 742 583 519 776 690 697 61 636 720 48 912 439 43 41 1033 1069
internal_count=15139 7739 7400 3442 4297 2922 4478 1629 1467 1813 1581 2231 1439 1792 1455 1846 2632 2066 1412 896 769 484 1102 285 812 1198 944 742 583 519 776 690 697 61 636 720 48 912 439 43 41 1033 1069
is_linear=0
shrinkage=0.03


Tree=3
num_leaves=48
num_cat=0
split_feature=132 132 132 132 132 132 142 139 139 154 155 142 132 139 141 132 132 132 137 142 132 154 155 144 59 154 132 139 154 137 155 132 157 141 154 155 157 58 61 12 155 44 135 163 155 155 136
split_gain=1.45894e+08 1.57603e+07 1.16755e+07 2.1419e+06 1.75188e+06 1.74693e+06 1.48655e+06 521710 366619 353140 265350 206250 206195 205298 202043 193452 173136 139290 137852 109519 108137 98012.1 83764.2 113977 75031.3 63068 56862.8 56464.9 38402.7 36737.9 33278.9 29821.5 28355.7 27810.5 27124.9 25537.2 20047.3 19462.8 17756 14153.5 11213.8 8360.38 3571.77 1261.14 1225.37 4709.36 360.915
threshold=170.25000000000003 277.07142857142861 75.166666666666671 220.12500000000003 324.16666666666669 118.25000000000001 37.375000000000007 0.15476190476190479 0.31666666666666671 43.100000000000009 134.78219466160255 279.12500000000006 189.08333333333334 0.31666666666666671 237.12500000000003 148.87500000000003 345.06250000000006 300.08333333333343 18.500000000000004 61.125000000000007 98.125000000000014 145.30000000000004 78.803806922681986 83.250000000000014 75700.500000000015 260.50000000000006 260.33333333333343 0.31666666666666671 62.900000000000006 206.50000000000003 58.799658917532717 135.10000000000002 152.423177371273 237.12500000000003 102.30000000000003 51.13120363046545 126.28366874959508 0.56214887640449451 89.000000000000014 21.500000000000004 130.46056875321548 20.531394303946673 68.353813474755455 288.66666666666669 126.18272450586625 139.74691401359334 3.5000000000000004
decision_type=2 2 2 2 2 2 2 2 2 2 2 2 2 2 2 2 2 2 2 2 2 2 2 2 2 2 2 2 2 2 2 2 2 2 2 2 2 2 2 2 2 2 2 2 2 2 2
left_child=2 3 6 7 17 13 18 12 15 -5 14 33 30 20 21 31 -6 40 -1 -8 46 -11 23 -14 28 -26 -16 -21 -19 -24 -2 41 -32 -12 -15 -17 -9 -37 -33 -13 43 -7 -29 -3 -22 -46 -4
right_child=1 4 5 9 16 8 19 36 -10 10 11 39 22 34 26 35 -18 24 -20 27 44 -23 29 -25 25 -27 -28 42 -30 -31 32 38 -34 -35 -36 37 -38 -39 -40 -41 -42 -43 -44 -45 45 -47 -48
leaf_value=-4.6137472645806863 -0.83168147376992485 2.8024638709741141 -1.6605135410172598 -1.5573813714981077 4.3419548144880107 -1.3957656746607194 -3.5029774965226106 2.3089750055166389 1.9776669638923234 1.1702339916355242 1.345737341197569 2.9012389697601546 0.50314509647695904 -0.95702929317951191 1.9533046512389451 -1.3034740507427383 4.9719950702824169 2.0544414599583698 -4.0850137873147521 -3.0243067596934514 -1.9253044930964343 1.8822936538274233 0.55366660773754117 -1.8107666513194209 1.2631322313845157 3.2193261205233057 2.5668695035143791 -2.0925338745117186 3.7959580169359901 1.1007430397739371 0.10704191772259296 -1.0157758394023715 1.1363769090771676 2.2450989025660921 0.43350346157948172 0.21605780698932134 4.3014937019348141 -0.48758996169109697 -0.098256005048751829 3.7524167979955672 3.4046314670562743 -0.62162659440189594 -1.1499935028076171 3.3272908812761304 -1.1708229457415067 -1.8863450961311659 -2.4863565993873076
leaf_weight=1651 30 413 25 22 1000 424 980 23 39 366 64 131 112 21 353 31 1261 23 1074 708 323 380 161 20 29 49 348 26 1053 439 702 295 22 137 24 36 25 586 21 117 272 20 22 125 49 33 1059
leaf_count=1651 30 413 25 22 1000 424 980 23 39 366 64 131 112 21 353 31 1261 23 1074 708 323 380 161 20 29 49 348 26 1053 439 702 295 22 137 24 36 25 586 21 117 272 20 22 125 49 33 1059
internal_value=0 2.89603 -2.9965 1.39049 4.12425 -1.54235 -3.96815 0.553316 -0.794068 2.05814 2.10248 2.75118 0.449948 -2.2477 1.89592 -0.874598 4.69946 3.4559 -4.41008 -3.26805 -2.30794 1.53903 0.807543 0.120104 3.69038 2.56574 2.26754 -2.95088 3.76455 0.957429 0.100962 -1.19967 0.14288 1.98274 -0.234669 -0.492504 3.53873 -0.446023 -0.956299 3.34285 3.10946 -1.3653 -1.75359 2.94218 -1.85402 -1.51519 -2.47195
internal_weight=0 7677 7447 3452 4225 2986 4461 1534 1452 1918 1896 449 1486 1534 1447 1413 2261 1964 2725 1736 1489 746 732 132 1154 78 701 756 1076 600 754 760 724 201 45 653 48 622 316 248 810 444 48 538 405 82 1084
internal_count=15124 7677 7447 3452 4225 2986 4461 1534 1452 1918 1896 449 1486 1534 1447 1413 2261 1964 2725 1736 1489 746 732 132 1154 78 701 756 1076 600 754 760 724 201 45 653 48 622 316 248 810 444 48 538 405 82 1084
is_linear=0
shrinkage=0.03


Tree=4
num_leaves=47
num_cat=0
split_feature=132 132 142 132 132 132 142 139 139 132 132 132 155 132 139 154 142 142 132 154 59 155 141 141 154 155 137 30 156 22 59 137 41 157 155 141 154 155 155 142 155 132 132 142 44 132
split_gain=1.37305e+08 1.46375e+07 1.11117e+07 2.06458e+06 1.79788e+06 1.63402e+06 1.29082e+06 411616 375119 258254 234436 229170 217657 199389 194995 171531 157120 154630 94432.5 89183.5 91315.6 73843.2 106503 73248.1 78554.7 66609.7 62063.6 59615.8 52078.1 41071 57754.4 37103.5 34992.7 29899.6 29070 25064 34668.5 22992.2 22919.2 37161.1 12764.8 7920.23 2953.93 1804.83 1804.14 642.017
threshold=170.25000000000003 269.75000000000006 77.375000000000014 320.80000000000007 115.07142857142858 226.35000000000002 32.125000000000007 0.31666666666666671 0.18333333333333338 189.08333333333334 146.75000000000003 345.06250000000006 132.66906195415521 293.12500000000006 0.31666666666666671 47.100000000000009 279.12500000000006 53.125000000000007 92.625000000000014 60.900000000000006 75700.500000000015 78.803806922681986 170.12500000000003 244.50000000000003 235.30000000000004 32.124755264051196 14.500000000000002 0.12599206349206352 236.15000000000001 4.3416666666666677 175.50000000000003 157.50000000000003 1.5000000000000002 148.14231333382506 119.84389842148798 129.25000000000003 190.70000000000002 127.49321550103828 51.13120363046545 201.37500000000003 129.32594480465761 248.25000000000003 103.75000000000001 140.37500000000003 11.078496625650468 260.33333333333343
decision_type=2 2 2 2 2 2 2 2 2 2 2 2 2 2 2 2 2 2 2 2 2 2 2 2 2 2 2 2 2 2 2 2 2 2 2 2 2 2 2 2 2 2 2 2 2 2
left_child=2 5 6 13 14 8 26 10 9 29 35 -5 15 40 18 -7 41 -8 -4 -15 37 22 -11 24 -17 -22 -1 33 -23 30 -2 -16 -31 -18 -9 36 -6 -21 -12 -40 -3 -14 -20 -37 -29 -25
right_child=1 3 4 11 7 12 17 34 -10 21 38 -13 16 19 31 23 27 -19 42 20 25 28 -24 45 -26 -27 -28 44 -30 32 -32 -33 -34 -35 -36 43 -38 -39 39 -41 -42 -43 -44 -45 -46 -47
leaf_value=-4.516983726479415 -0.00072156496345996855 2.659712329703408 -2.4759829440359646 4.1515583621129624 -1.464294355265237 -0.73677499101712152 -3.5693054353879008 1.0499779486226348 3.3934987885611396 -1.5727571373939515 -1.1957817509206565 4.8146761223954968 1.5108370231073114 1.360538916679529 -1.3142420556468348 1.4131956976236166 2.8217705013568581 -2.9792921414922495 -2.0694767396173006 3.3589180844379753 3.369604007351783 1.0231051518902425 0.59599935766410184 1.9703671513504222 2.3272053663040464 1.3618864863333495 -4.0837699429617178 3.9581881248557962 -0.47053392866383426 0.095992330415840557 1.9668260527610779 0.10290616143690912 -0.93461891033476396 1.3171499729582241 2.7825441992282864 -1.0830833091498901 -0.62652419304847717 3.8072287530568292 -0.47947073934277373 0.36929743542390708 3.0851258050441741 2.1448591381072997 -1.7431414631159365 -0.83664883335723594 2.4334308951833976 2.3589083232519763
leaf_weight=1381 29 552 984 1159 410 23 991 23 39 22 34 1269 76 23 28 520 62 973 281 665 28 729 108 230 111 43 1049 88 20 682 22 35 28 25 21 158 57 516 621 48 297 97 235 133 20 156
leaf_count=1381 29 552 984 1159 410 23 991 23 39 22 34 1269 76 23 28 520 62 973 281 665 28 729 108 230 111 43 1049 88 20 682 22 35 28 25 21 158 57 516 621 48 297 97 235 133 20 156
internal_value=0 2.82064 -2.89987 3.9017 -1.51229 1.2243 -3.86703 -0.76991 0.590597 0.517868 -0.857312 4.50365 1.97712 3.20821 -2.22428 1.7444 2.61537 -3.28199 -2.29301 3.46024 3.49547 0.867265 0.201782 1.80251 1.58423 2.25817 -4.33524 3.21444 0.981504 0.112473 0.91014 -0.558047 0.051587 2.44773 2.00171 -1.22274 -1.36669 3.56394 -0.459773 -0.417196 2.81887 1.89683 -1.93179 -0.980138 3.74923 2.14438
internal_weight=0 7639 7462 4552 3068 3087 4394 1505 1679 1640 1461 2428 1408 2124 1563 1040 368 1964 1500 1275 1252 879 130 1017 631 71 2430 195 749 761 51 63 710 87 44 758 467 1181 703 669 849 173 516 291 108 386
internal_count=15101 7639 7462 4552 3068 3087 4394 1505 1679 1640 1461 2428 1408 2124 1563 1040 368 1964 1500 1275 1252 879 130 1017 631 71 2430 195 749 761 51 63 710 87 44 758 467 1181 703 669 849 173 516 291 108 386
is_linear=0
shrinkage=0.03


Tree=5
num_leaves=48
num_cat=0
split_feature=132 132 132 132 132 132 132 139 139 134 139 132 155 154 132 132 132 143 155 135 135 141 154 132 132 5 59 155 163 135 132 139 59 139 136 44 135 141 155 132 30 134 132 132 143 141 155
split_gain=1.28334e+08 1.23024e+07 1.20489e+07 2.00042e+06 1.71358e+06 1.57911e+06 1.27585e+06 342196 298253 283568 233724 209531 208442 153788 145933 140357 132857 116467 102332 123485 117980 101743 186137 96973.1 81068.1 64611.8 49263.1 105317 46488.2 53800.8 45509.3 43518.2 42267.9 36391.1 34450 33108.9 30825.7 29777.7 22938.6 18350.5 15595.3 11384.3 11212.4 7098.14 7070.59 4960.57 620.827
threshold=177.05000000000004 279.08333333333343 75.166666666666671 123.25000000000001 234.41666666666671 325.07142857142861 32.055555555555564 0.18333333333333338 0.31666666666666671 207.50000000000003 0.31666666666666671 156.16666666666671 125.23450003851968 48.500000000000007 350.33333333333343 96.166666666666671 52.166666666666679 135.50000000000003 140.09482491295364 170.22327721562081 140.15162904400776 244.50000000000003 235.30000000000004 307.25000000000006 13.016666666666667 47.500000000000007 75700.500000000015 71.377867709422517 142.90000000000003 96.638986894989202 190.95512820512823 0.31666666666666671 3928.5000000000005 0.48333333333333339 38.500000000000007 10.152739817472947 155.9198311412446 137.12500000000003 136.6477222359259 252.16666666666671 0.13921188630490958 256.25000000000006 164.16666666666671 294.25000000000006 175.50000000000003 110.12500000000001 128.63638676433061
decision_type=2 2 2 2 2 2 2 2 2 2 2 2 2 2 2 2 2 2 2 2 2 2 2 2 2 2 2 2 2 2 2 2 2 2 2 2 2 2 2 2 2 2 2 2 2 2 2
left_child=2 4 6 10 7 23 24 9 11 30 15 28 13 -6 -7 -4 33 39 19 -11 -20 22 -15 26 -1 -19 32 -28 37 -30 38 -18 43 -8 -13 -12 -32 -5 -2 -14 -27 -23 -36 -3 45 -17 -25
right_child=1 5 3 8 12 14 16 -9 -10 18 35 34 17 21 -16 44 31 25 20 -21 -22 41 -24 46 -26 40 27 -29 29 -31 36 -33 -34 -35 42 -37 -38 -39 -40 -41 -42 -43 -44 -45 -46 -47 -48
leaf_value=-4.3844501270071072 0.055522703356808048 2.7762193473508532 -2.3330167703907612 -1.2004360655260584 -0.58340946013927453 4.1516001889505656 -3.4625076029220265 3.320117655436198 1.9419348425524576 1.0804612660127701 -0.63774345360696316 0.71450733293805802 1.6737376976801344 1.1800089763953394 4.7339316744299813 -1.8514572497192492 -2.8947313855997172 1.2430185617672074 1.1694166161089525 -0.70508886638440582 3.7947673967149522 1.8859946389524092 2.5213983595148837 3.3246966504714064 -3.9371633034356881 2.6316710398980043 2.9527599736477463 0.55638106746058302 -0.70251193903701403 0.7089554132734025 0.64797783697168154 -1.390871133475468 3.5748329253434057 -2.1494265677289262 -0.41775728873749995 0.85450333605641904 -0.48595204353332516 -0.75585643748867704 0.61093480450029558 2.3081810944979306 3.3765914988517762 2.3735408409118652 -0.14965779724301861 3.163301443558705 -1.1134841094017029 -1.5091806384973356 3.7679884247444044
leaf_weight=1399 477 481 1035 429 22 1201 916 42 39 603 29 32 118 350 1046 360 923 24 46 35 24 158 131 422 1133 131 44 28 210 25 320 26 218 38 232 20 21 232 75 180 174 297 363 392 37 168 352
leaf_count=1399 477 481 1035 429 22 1201 916 42 39 603 29 32 118 350 1046 360 923 24 46 35 24 158 131 422 1133 131 44 28 210 25 320 26 218 38 232 20 21 232 75 180 174 297 363 392 37 168 352
internal_value=0 2.80886 -2.72979 -1.3284 1.41547 3.88209 -3.74282 0.73455 -0.55743 0.660638 -2.05636 -0.625124 2.11859 1.82678 4.42863 -2.11875 -3.14325 2.55362 1.10791 0.979666 2.18849 1.88511 1.5587 3.24221 -4.1892 2.96344 3.03539 2.08037 -0.918797 -0.545312 0.303502 -2.85804 3.09253 -3.41711 -0.203079 -0.0145041 0.574517 -1.04852 0.133881 2.07614 3.08539 2.2177 -0.255765 2.96027 -1.716 -1.75169 3.54007
internal_weight=0 7412 7646 3211 3228 4184 4435 1643 1562 1601 1649 1523 1585 958 2247 1600 1903 627 708 638 70 936 481 1937 2532 329 1163 72 896 235 893 949 1091 954 627 49 341 661 552 298 305 455 595 873 565 528 774
internal_count=15058 7412 7646 3211 3228 4184 4435 1643 1562 1601 1649 1523 1585 958 2247 1600 1903 627 708 638 70 936 481 1937 2532 329 1163 72 896 235 893 949 1091 954 627 49 341 661 552 298 305 455 595 873 565 528 774
is_linear=0
shrinkage=0.03


Tree=6
num_leaves=53
num_cat=0
split_feature=132 142 132 142 132 132 134 154 139 139 155 132 132 142 132 132 142 155 154 132 135 142 144 154 163 107 59 155 154 135 154 135 135 155 154 155 155 132 123 136 128 134 132 142 23 144 108 132 154 155 142 134
split_gain=1.21353e+08 1.28431e+07 9.94176e+06 1.8945e+06 1.52876e+06 1.4262e+06 1.12609e+06 310970 288991 220559 205588 182288 177505 169762 165034 162881 161104 158127 225183 112673 106202 90953 80870 190100 79263.8 72470.5 56819.2 95611.9 54811.3 47954.2 32372.5 112304 69862.8 32290.2 31020.1 22206.1 21640.8 21177.3 18054.6 16751.9 14693 18830.1 12814.9 7058.14 5258.03 5853.77 3914.5 1929.16 2665.59 548.018 109.322 17.5647
threshold=180.25000000000003 88.250000000000014 275.87500000000006 41.250000000000007 327.58333333333343 131.75000000000003 239.25000000000003 44.300000000000004 0.48333333333333339 0.48333333333333339 123.83295199571849 67.583333333333357 159.16666666666671 20.125000000000004 300.08333333333343 103.75000000000001 207.12500000000003 78.803806922681986 81.100000000000009 351.07142857142861 231.93102422918761 285.12500000000006 69.875000000000014 231.50000000000003 288.66666666666669 0.17324077936006677 75700.500000000015 71.377867709422517 62.900000000000006 131.53934656316946 74.700000000000003 119.43974128105133 167.06739898472071 49.671301700039258 209.50000000000003 32.124755264051196 130.46056875321548 260.33333333333343 3.3457409085393421 105.50000000000001 706.50000000000011 121.25000000000001 196.25000000000003 55.125000000000007 0.96428571428571441 0.75000000000000011 0.96740474682597799 185.20000000000002 130.10000000000002 127.75773948918842 260.12500000000006 191.75000000000003
decision_type=2 2 2 2 2 2 2 2 2 2 2 2 2 2 2 2 2 2 2 2 2 2 2 2 2 2 2 2 2 2 2 2 2 2 2 2 2 2 2 2 2 2 2 2 2 2 2 2 2 2 2 2
left_child=1 3 6 13 14 9 16 -8 12 15 22 43 30 -1 36 35 42 18 39 -6 24 50 37 -24 -19 -23 28 -28 -16 -11 31 -7 -32 -14 -20 -3 -4 -9 -35 -18 41 -17 47 -5 -44 -46 -37 48 -2 -30 -12 -49
right_child=2 5 4 11 19 8 7 10 -10 29 21 -13 33 -15 26 40 17 20 34 -21 -22 25 23 -25 -26 -27 27 -29 49 -31 32 -33 -34 38 -36 46 -38 -39 -40 -41 -42 -43 44 -45 45 -47 -48 51 -50 -51 -52 -53
leaf_value=-4.1915528261370145 0.26489699810743333 -3.1895261383056641 2.6446327249710877 -3.1995070733962119 4.0569020921617929 -0.81291322927372378 -1.4972189768889674 1.7816004857296346 2.9447942385466201 -0.51996419906616209 1.7823897921452756 -2.4273606648891088 -1.1910373116284609 -3.6475383136390196 1.7258933441979543 -1.6228867739913737 -2.2441407683491708 1.1081785773901482 0.23983326673507691 4.6034640263880497 3.2359506988525393 1.5170313993295033 0.80257193016238726 2.4857173330386479 2.9445922652534815 3.0263097346633958 3.206937697483943 0.97053366464727064 3.3105924110412595 1.2922025411025337 -0.69605091592336199 -3.0747621320641558 0.90656389089731071 -0.10708911730374904 1.3963469513817266 -2.0770934760761914 3.115393901633233 2.2685728594462078 0.55664751357757125 -0.84821986944779104 -0.63457320499420167 -1.2289665751353072 1.0862925274994062 -2.8715873283010049 0.62397999583550223 0.055515748314235523 -1.2241740260823912 0.29613640960634063 -0.14396180259144822 3.6657975766756183 2.2177583119567008 0.37052182231630598
leaf_weight=1838 37 24 583 613 1130 180 20 308 20 28 119 831 21 1070 25 336 21 793 36 980 21 42 199 87 20 308 49 31 607 20 614 20 23 689 52 651 288 222 36 20 27 266 20 646 103 20 20 190 20 560 139 81
leaf_count=1838 37 24 583 613 1130 180 20 308 20 28 119 831 21 1070 25 336 21 793 36 980 21 42 199 87 20 308 49 31 607 20 614 20 23 689 52 651 288 222 36 20 27 266 20 646 103 20 20 190 20 560 139 81
internal_value=0 -2.56857 2.81685 -3.49719 3.73811 -1.00655 1.45296 2.04404 -0.39765 -1.71555 2.09682 -2.79932 -0.44537 -3.99535 3.16297 -1.78785 0.854731 1.0769 0.0968496 4.31693 1.2276 2.52344 1.77087 1.33507 1.16401 2.85963 3.39717 2.40673 3.45743 0.266701 -0.744495 -1.0812 -0.634207 -0.108119 0.946732 -2.10987 2.81045 1.9972 -0.0719731 -1.66746 -1.42371 -1.45579 0.396554 -3.03848 0.6329 0.535069 -2.05723 0.28871 0.121413 3.49 2.03974 0.322183
internal_weight=0 7973 7131 4998 4253 2975 2878 1444 1603 1372 1424 2090 1583 2908 2143 1324 1434 963 129 2110 834 608 816 286 813 350 1272 80 1192 48 837 200 637 746 88 695 871 530 725 41 629 602 471 1259 143 123 671 328 57 1167 258 271
internal_count=15104 7973 7131 4998 4253 2975 2878 1444 1603 1372 1424 2090 1583 2908 2143 1324 1434 963 129 2110 834 608 816 286 813 350 1272 80 1192 48 837 200 637 746 88 695 871 530 725 41 629 602 471 1259 143 123 671 328 57 1167 258 271
is_linear=0
shrinkage=0.03


Tree=7
num_leaves=48
num_cat=0
split_feature=132 132 132 137 132 134 132 139 136 155 132 132 132 134 141 136 132 132 137 139 102 155 136 132 59 157 136 132 144 132 155 23 155 155 135 155 135 53 136 132 155 132 65 155 132 141 155
split_gain=1.15048e+08 1.19154e+07 9.35568e+06 1.66183e+06 1.53536e+06 1.30609e+06 1.25172e+06 340163 232920 207157 172459 161733 151076 145247 144767 134433 172097 134028 130443 95774.6 90269.6 73623.6 98414 60720.2 55246 50392.7 50104.6 47338.4 39311.4 38843 46225.4 38154.5 33433.3 30921.8 26881 21992 40030.7 21176.8 19568.5 14312 12264.9 10425.7 7030.38 4802.05 3535.05 699.666 470.717
threshold=180.25000000000003 84.250000000000014 279.08333333333343 41.500000000000007 131.75000000000003 231.50000000000003 333.25000000000006 0.48333333333333339 1.0000000180025095e-35 125.23450003851968 60.250000000000007 300.08333333333343 103.75000000000001 161.25000000000003 237.12500000000003 4.5000000000000009 200.60714285714289 18.166666666666668 324.50000000000006 0.48333333333333339 94.500000000000014 139.13101727126769 107.50000000000001 353.94444444444451 75700.500000000015 77.514944942637115 115.50000000000001 262.12500000000006 141.37500000000003 142.10000000000002 130.21029142259115 2.2403846153846159 71.377867709422517 60.807894192329861 60.716480723476899 52.745421757087314 116.91601153075395 2.167825869010136 125.50000000000001 252.16666666666671 150.46501246406896 121.25000000000001 0.0055140761448344089 128.63638676433061 71.166666666666671 242.12500000000003 106.03452267189562
decision_type=2 2 2 2 2 2 2 2 2 2 2 2 2 2 2 2 2 2 2 2 2 2 2 2 2 2 2 2 2 2 2 2 2 2 2 2 2 2 2 2 2 2 2 2 2 2 2
left_child=1 3 5 17 8 15 11 13 31 14 34 38 -10 29 25 -2 33 -1 39 44 -20 26 -23 -8 43 -7 -18 45 -27 42 -31 -3 -26 -17 -5 -15 -37 -35 -4 -11 -22 -14 -6 -13 -12 -16 -40
right_child=2 4 6 10 7 9 23 -9 12 18 19 24 41 35 27 16 21 -19 20 -21 40 22 -24 -25 32 28 -28 -29 -30 30 -32 -33 -34 37 -36 36 -38 -39 46 -41 -42 -43 -44 -45 -46 -47 -48
leaf_value=-4.0742777271962529 3.0113165548573368 -0.69599977410357927 3.3007780904429298 -3.1019034913955847 -0.54769573911031078 0.086160237744690907 4.018085280627739 2.9812555101182725 -2.0622315086637224 1.6823012365321435 -2.6670273301042156 3.2691187385356786 -1.5483505803926856 -0.96880483720451582 1.4028558100824771 -0.76667184991836546 0.088361437934286441 -3.5736958593921124 1.2400197044578758 -0.52410297075907386 2.7931846952018233 3.3285797473362511 0.93023763465881348 4.4968264459103953 2.8547338611602782 1.2764614490958135 0.9722869932302769 2.3538940498232841 2.1239110759478894 -0.63710872279521491 0.091017236690571962 0.89064711723257506 1.2866465940475464 0.70839766398699278 -2.0220684242248534 -0.094799741585959968 1.0460324073659963 0.21924681306617558 2.3552653278197559 2.2050060000594374 3.6094156883908557 -1.2297999899465959 -1.0402353682486634 3.6010577373329649 -2.378801292541274 1.826239300436955 2.7743804087299684
leaf_weight=1734 20 20 123 937 42 28 1022 24 795 166 483 789 336 21 66 22 65 1067 34 24 224 25 42 879 47 401 561 285 64 537 91 31 27 98 44 608 26 404 165 188 74 270 225 651 586 256 475
leaf_count=1734 20 20 123 937 42 28 1022 24 795 166 483 789 336 21 66 22 65 1067 34 24 224 25 42 879 47 401 561 285 64 537 91 31 27 98 44 608 26 404 165 188 74 270 225 651 586 256 475
internal_value=0 -2.49023 2.75126 -3.40778 -1.01012 1.47786 3.6709 -0.359954 -1.71272 1.99648 -2.75506 3.18566 -1.7851 -0.417348 1.73017 0.72606 0.681192 -3.88762 2.41411 -2.47394 2.85928 0.990574 1.92944 4.24619 3.37875 1.33198 0.881365 2.04543 1.40597 -0.665148 -0.531669 0.264333 2.35501 0.268719 -3.05978 -0.0772629 -0.0433088 0.318379 2.79078 1.97609 3.02983 -1.41318 -0.969704 3.42636 -2.51613 1.75321 2.67782
internal_weight=0 7901 7201 4875 3026 3023 4178 1574 1452 1786 2074 2277 1401 1550 1100 1237 1217 2801 686 1093 332 693 67 1901 1514 493 626 607 465 895 628 51 74 524 981 655 634 502 763 354 298 606 267 1440 1069 322 640
internal_count=15102 7901 7201 4875 3026 3023 4178 1574 1452 1786 2074 2277 1401 1550 1100 1237 1217 2801 686 1093 332 693 67 1901 1514 493 626 607 465 895 628 51 74 524 981 655 634 502 763 354 298 606 267 1440 1069 322 640
is_linear=0
shrinkage=0.03


Tree=8
num_leaves=52
num_cat=0
split_feature=132 142 132 142 132 132 132 139 139 155 139 154 132 142 142 134 132 132 132 132 141 154 15 132 59 154 155 141 135 135 155 142 54 135 137 142 154 155 139 1 155 137 132 132 155 132 135 154 35 132 155
split_gain=1.07811e+08 1.11279e+07 8.90494e+06 1.6768e+06 1.3302e+06 1.28879e+06 1.00854e+06 317410 290634 219003 189176 172741 165360 155686 147092 145253 145234 134941 108258 99895.6 87259.8 129519 83687.8 70797.5 69141.4 130872 65638.9 88816.3 54600.3 43925.8 40054.8 41221.1 38654.4 99902.8 89829.1 32615.2 27883.2 152208 24554.4 21831.9 17868.1 19357.5 12379.3 11940.3 10932.5 10994.6 10678.5 9188.04 8027.85 5428.98 2863.42
threshold=180.25000000000003 88.250000000000014 275.37500000000006 41.250000000000007 323.20000000000005 129.12500000000003 232.83333333333334 0.48333333333333339 0.15476190476190479 125.23450003851968 0.18333333333333338 47.100000000000009 65.250000000000014 287.12500000000006 22.250000000000004 201.25000000000003 156.16666666666671 344.10000000000008 300.08333333333343 109.16666666666667 244.50000000000003 235.30000000000004 3.8815106545092593 103.75000000000001 75700.500000000015 224.90000000000003 81.216006696867694 186.62500000000003 180.66578259316293 167.06739898472071 48.482159756752701 198.87500000000003 74.982887769598364 147.93037424795233 303.50000000000006 171.12500000000003 192.10000000000002 101.12368651091394 0.48333333333333339 187.50000000000003 131.68993883654886 324.50000000000006 248.25000000000003 262.12500000000006 32.124755264051196 96.166666666666671 61.815626624208058 215.90000000000003 3.5000000000000004 78.833333333333357 41.70562821821175
decision_type=2 2 2 2 2 2 2 2 2 2 2 2 2 2 2 2 2 2 2 2 2 2 2 2 2 2 2 2 2 2 2 2 2 2 2 2 2 2 2 2 2 2 2 2 2 2 2 2 2 2 2
left_child=1 3 6 14 18 10 8 16 15 11 19 -8 46 42 -1 32 30 -6 40 44 21 -13 -15 38 36 -26 27 -17 -28 35 -7 -32 34 -34 -2 -18 37 -20 -12 -24 47 -42 -11 -22 -3 -46 -5 -4 -10 -14 -21
right_child=2 5 4 12 17 7 9 -9 48 13 23 20 49 22 -16 26 29 -19 24 50 43 -23 39 -25 25 -27 28 -29 -30 -31 31 -33 33 -35 -36 -37 -38 -39 -40 -41 41 -43 -44 -45 45 -47 -48 -49 -50 -51 -52
leaf_value=-3.9282355802727542 0.30914596820986551 -2.8645424699784052 2.3681299548387886 -2.914849907463247 3.7169145250931162 -1.6850195873700653 -0.96636145889759051 2.8027554621015276 3.6411571205986868 1.4678067172834506 -1.5308751343142601 1.0969622553054943 -2.4564703945316086 1.1617288666386758 -3.4035692018207748 -1.206330417905535 -0.32593060779741828 4.2658368739436501 0.64189340216772894 -1.9034876621246337 1.7682003955917054 2.3077731661206093 3.2891830227500511 0.76257778143882748 0.045983569933020545 2.8046737395695276 1.0137761048607288 0.75918790085613719 2.3100808091597123 -1.2252212966572154 -0.7334104657310494 0.2326046272028576 0.34590601953869199 -1.2398651665907641 2.2164092124662091 0.058048788061938507 3.4849545877279056 3.1277624824891008 -0.34792971271276474 2.3307015889799092 2.5233194024614294 3.2889146402646912 2.0276840397791212 2.2125728609011723 -2.0293535893000665 -1.6863780782818794 -2.0008925938051796 2.8138717041938626 2.0556315680650563 -2.162531369899606 -1.318521966699796
leaf_weight=1909 83 21 412 1097 1012 36 21 25 24 101 28 374 490 28 947 25 347 1268 25 22 248 104 187 32 20 67 617 77 30 30 648 41 435 36 28 460 491 514 37 68 136 156 194 205 477 277 40 203 23 475 428
leaf_count=1909 83 21 412 1097 1012 36 21 25 24 101 28 374 490 28 947 25 347 1268 25 22 248 104 187 32 20 67 617 77 30 30 648 41 435 36 28 460 491 514 37 68 136 156 194 205 477 277 40 203 23 475 428
internal_value=0 -2.41791 2.65924 -3.28185 3.52557 -0.943566 1.37472 -0.366092 0.783444 1.90468 -1.6344 1.61396 -2.63045 2.37271 -3.75802 0.697286 -0.422085 4.0274 2.95515 -1.73526 1.67507 1.37315 2.88964 -0.346841 3.1732 2.19316 0.973047 0.256741 1.08427 -0.151942 -0.732049 -0.675167 0.339226 0.21762 0.835923 -0.107653 3.24936 3.01665 -0.902563 3.06366 2.67704 2.96162 1.8527 1.98253 -1.94733 -1.91054 -2.88805 2.52821 3.03515 -2.31894 -1.35954
internal_weight=0 7867 7212 4958 4304 2909 2908 1587 1378 1530 1322 952 2102 578 2856 1331 1562 2280 2024 1225 931 478 283 97 1117 87 749 102 647 837 725 689 582 471 111 807 1030 539 65 255 907 292 295 453 775 754 1137 615 47 965 450
internal_count=15079 7867 7212 4958 4304 2909 2908 1587 1378 1530 1322 952 2102 578 2856 1331 1562 2280 2024 1225 931 478 283 97 1117 87 749 102 647 837 725 689 582 471 111 807 1030 539 65 255 907 292 295 453 775 754 1137 615 47 965 450
is_linear=0
shrinkage=0.03


Tree=9
num_leaves=45
num_cat=0
split_feature=133 133 133 133 133 133 137 139 139 134 133 133 139 133 154 154 133 133 139 137 154 133 139 163 154 59 133 23 163 105 30 139 157 28 143 135 154 28 59 22 141 154 135 134
split_gain=1.00578e+08 1.0518e+07 8.42773e+06 1.46945e+06 1.23353e+06 1.21897e+06 1.10162e+06 340386 332308 197624 177044 153862 149413 139794 114742 108659 90919 62235.9 61944.7 56275.2 55786.2 50446 43051.4 36537.8 32663.8 101718 31444.5 32247.7 28601.5 28352.5 92199.6 27260 25728.2 21819.8 41256.9 30361.7 20478.9 16738.2 15872.8 14848.3 16980.6 9174.28 8652.41 1520.29
threshold=172.16666666666671 275.87500000000006 77.166666666666671 230.16666666666671 331.9285714285715 115.07142857142858 34.500000000000007 0.18333333333333338 0.31666666666666671 201.25000000000003 142.10000000000002 305.20000000000005 0.31666666666666671 54.166666666666679 48.500000000000007 43.100000000000009 257.74715909090918 354.41666666666669 0.48333333333333339 13.500000000000002 174.50000000000003 90.250000000000014 0.48333333333333339 40.861111111111121 217.30000000000004 67600.500000000015 185.20000000000002 0.44949494949494956 225.75000000000003 0.20335285591741359 0.11647286821705428 0.48333333333333339 82.908413124541781 26.500000000000004 165.50000000000003 100.63360007228742 65.100000000000009 34.500000000000007 321.00000000000006 2.505555555555556 127.25000000000001 231.50000000000003 172.07611082831761 102.50000000000001
decision_type=2 2 2 2 2 2 2 2 2 2 2 2 2 2 2 2 2 2 2 2 2 2 2 2 2 2 2 2 2 2 2 2 2 2 2 2 2 2 2 2 2 2 2 2
left_child=2 3 6 7 11 12 19 9 10 26 39 24 21 31 -5 -11 33 -6 -15 -1 -17 -4 -10 -12 25 -3 37 -28 -25 30 -18 -8 -31 34 -16 -35 -13 -2 -26 -7 -41 43 -9 -23
right_child=1 4 5 14 17 8 13 42 22 15 23 36 -14 18 16 20 29 -19 -20 -21 -22 41 -24 28 38 -27 27 -29 -30 32 -32 -33 -34 35 -36 -37 -38 -39 -40 40 -42 -43 -44 -45
leaf_value=-3.8965838287284527 0.258607631925172 2.5851206626385217 -2.0940854590589351 -0.28520307140350337 3.7770023233971388 -0.27747998893260956 -3.0626909556197557 2.0515086188683145 0.62241932851076132 -1.0937319190979002 -1.43988365129991 1.9225785097582586 0.0055445397198200224 -2.5087929983614341 1.5819786527421738 0.77266903578999024 -0.058454232215881342 4.2409487317609678 -0.73011973381042472 -3.5084474172718201 1.4012818822477544 -1.8135725652254544 2.3572325171193769 -0.44462025230908525 2.4228639504716205 0.40440282940864564 0.94201807157902773 0.27674547363468943 0.52361535627266453 0.99107466459274285 2.2357532739639279 -2.2026843090057371 2.2120853063103545 1.5687088838499719 0.38807409286499023 2.1112808979089093 3.2458044172743552 -0.098340610197896292 3.1265728239618338 -1.283569334898581 -0.93423367027313475 -0.83648613266322924 3.663567123413086 -1.5387558791426748
leaf_weight=1324 194 759 789 22 1088 21 1019 23 27 22 30 26 37 930 78 502 25 859 21 1132 179 309 28 810 108 21 76 420 26 23 39 72 654 545 42 154 1079 293 305 355 276 20 23 229
leaf_count=1324 194 759 789 22 1088 21 1019 23 27 22 30 26 37 930 78 502 25 859 21 1132 179 309 28 810 108 21 76 420 26 23 39 72 654 545 42 154 1079 293 305 355 276 20 23 229
internal_value=0 2.43803 -2.47192 1.16996 3.42646 -1.2261 -3.28957 0.564726 -0.652849 0.49213 -0.736776 2.9462 -1.87481 -2.76455 1.83026 0.875195 1.86059 3.9879 -2.47194 -3.72219 0.94332 -1.92636 1.58184 -0.453173 2.68519 2.52818 0.216349 0.383733 -0.412743 2.11206 1.37709 -3.01213 2.17516 1.62619 1.18377 1.69676 3.21996 0.0445651 2.96135 -1.10966 -1.13591 -1.67926 3.03249 -1.70578
internal_weight=0 7559 7455 3314 4245 2957 4498 1732 1573 1686 1518 2298 1384 2042 1582 703 1560 1947 951 2456 681 1347 55 866 1193 780 983 496 836 741 64 1091 677 819 120 699 1105 487 413 652 631 558 46 538
internal_count=15014 7559 7455 3314 4245 2957 4498 1732 1573 1686 1518 2298 1384 2042 1582 703 1560 1947 951 2456 681 1347 55 866 1193 780 983 496 836 741 64 1091 677 819 120 699 1105 487 413 652 631 558 46 538
is_linear=0
shrinkage=0.03


Tree=10
num_leaves=54
num_cat=0
split_feature=132 142 132 142 132 132 132 136 139 137 132 139 155 132 154 135 132 132 134 59 154 155 154 132 154 137 142 143 155 142 155 107 161 125 154 159 143 155 155 143 155 155 135 159 139 23 156 135 135 134 136 142 136
split_gain=9.47154e+07 1.02509e+07 7.93161e+06 1.48828e+06 1.17754e+06 1.09635e+06 991909 345846 220758 158543 155017 141834 137820 128638 126770 312299 126486 117013 101065 88553.3 153696 79556.3 104400 70122.2 60740.1 87905.3 59547.4 59523.1 46812.9 58179.3 46170.2 35606.9 32036 38876.8 30494.7 27760.5 26796.7 24990.2 24683.1 41513.6 21486.9 21335.9 19107.7 19048.9 17434.3 16169.8 13625.5 89712.3 56182.9 13271.9 2561.08 2385.43 2185.6
threshold=180.25000000000003 88.250000000000014 277.07142857142861 43.125000000000007 131.75000000000003 329.16666666666669 238.12500000000003 1.0000000180025095e-35 0.18333333333333338 24.500000000000004 203.25000000000003 0.48333333333333339 100.47606662454668 109.16666666666667 157.10000000000002 73.750938893995794 159.16666666666671 69.250000000000014 295.75000000000006 75700.500000000015 213.30000000000004 78.803806922681986 68.500000000000014 352.16666666666669 178.30000000000004 344.50000000000006 265.37500000000006 232.50000000000003 125.23450003851968 323.87500000000006 140.09482491295364 0.17324077936006677 196.89130434782612 0.13746428571428573 60.900000000000006 127.59429353868562 176.50000000000003 48.482159756752701 33.20000000000001 184.50000000000003 51.13120363046545 128.99224782899151 146.71601606096203 122.23483545862864 0.48333333333333339 2.4807692307692313 95.450000000000017 101.34354703699118 95.386291660154754 274.50000000000006 237.50000000000003 10.125000000000002 1.0000000180025095e-35
decision_type=2 2 2 2 2 2 2 2 2 2 2 2 2 2 2 2 2 2 2 2 2 2 2 2 2 2 2 2 2 2 2 2 2 2 2 2 2 2 2 2 2 2 2 2 2 2 2 2 2 2 2 2 2
left_child=1 3 6 9 11 18 8 44 10 51 24 13 14 38 15 50 32 52 -4 34 -21 22 -12 -7 25 -2 -14 -26 29 -28 -23 -30 37 -34 -20 43 -13 -9 -3 -40 -18 -36 -42 -16 -6 -37 48 -48 -15 -17 -8 -1 -5
right_child=2 4 5 17 7 23 12 16 -10 -11 21 36 26 46 35 49 40 -19 19 20 -22 30 -24 -25 27 -27 28 -29 31 -31 -32 -33 33 -35 41 45 -38 -39 39 -41 42 -43 -44 -45 -46 -47 47 -49 -50 -51 -52 -53 -54
leaf_value=-3.8143122091705686 0.31323584513836783 -2.7696874167702412 2.3943196943251221 -2.1515569988797223 1.2481139718890188 3.6247950642792923 0.951391926407814 -1.4629628478814112 2.8843119355135185 -3.1661732323678047 -1.418356715951647 -0.6934787979125977 1.6677426806046971 -1.2085302334872599 1.7098130080229799 -0.43164097091426018 -0.98477926714345798 -2.1384222141365878 1.4840893003214961 -0.35926490680031153 2.5689752207339649 0.98427157036106649 0.74973277680362971 4.0855388190713438 0.38398219197988509 -1.0248145022638599 2.1212241658491964 1.619748822891911 1.3306849886241712 1.0994298449269047 1.7839207752897768 2.5306179717004142 -0.61335810968952786 0.99549378514289855 2.8814582879714163 2.7667474124010871 0.61753012776374816 -0.64913637699737936 -1.8097339369918479 -0.61142544045167802 -0.10227010801321793 3.2199305054368197 0.69743165016174313 0.63367373617632039 2.7239397566659109 1.6124217593960644 -1.2034657141581329 0.47814574947411359 -2.8629121100384252 -1.4858445595701535 1.6411156144575638 -3.5207602403465836 -2.6792521027119025
leaf_weight=1084 453 30 431 86 22 1088 21 35 40 996 25 22 326 194 68 20 21 798 20 20 68 643 67 940 93 46 231 56 35 78 76 380 28 21 911 48 29 727 729 31 691 737 25 25 25 38 294 30 20 33 107 913 1094
leaf_count=1084 453 30 431 86 22 1088 21 35 40 996 25 22 326 194 68 20 21 798 20 20 68 643 67 940 93 46 231 56 35 78 76 380 28 21 911 48 29 727 729 31 691 737 25 25 25 38 294 30 20 33 107 913 1094
internal_value=0 -2.25842 2.50455 -3.09161 -0.864045 3.33597 1.29766 -0.308006 0.758062 -3.51608 0.69397 -1.50511 1.8685 -1.56461 1.33964 0.760532 -0.386632 -2.44498 2.86018 2.97025 1.91356 0.969947 0.134393 3.84407 0.345694 0.184501 2.04549 0.871233 2.208 1.87635 1.07586 2.4397 -0.644453 0.0938029 3.02246 1.90304 0.0448888 -0.692107 -1.812 -1.76345 -0.101462 3.0384 -0.0715541 1.44937 2.14946 2.32824 -1.1933 -1.0448 -1.40059 -1.13247 1.55234 -3.68559 -2.64635
internal_weight=0 7945 7124 4971 2974 4215 2909 1595 1499 2993 1459 1379 1410 1328 360 181 1548 1978 2187 1756 88 811 92 2028 648 499 1050 149 724 309 719 415 811 49 1668 179 51 762 790 760 737 1648 716 93 47 86 538 324 214 53 128 1997 1180
internal_count=15069 7945 7124 4971 2974 4215 2909 1595 1499 2993 1459 1379 1410 1328 360 181 1548 1978 2187 1756 88 811 92 2028 648 499 1050 149 724 309 719 415 811 49 1668 179 51 762 790 760 737 1648 716 93 47 86 538 324 214 53 128 1997 1180
is_linear=0
shrinkage=0.03


Tree=11
num_leaves=55
num_cat=0
split_feature=132 132 132 132 132 132 142 139 136 155 135 142 132 132 136 132 142 132 141 154 155 154 155 60 154 155 135 141 102 154 154 139 132 137 23 108 132 132 128 155 58 155 135 143 155 154 12 132 135 132 154 154 154 134
split_gain=8.909e+07 9.85749e+06 7.08464e+06 1.38169e+06 1.15876e+06 1.03459e+06 882744 335774 227861 218951 253245 186419 151279 137274 127957 126965 120628 110011 87639.1 74160.1 64576.2 70235.9 58310.9 50306.4 67808.4 48761.7 96333.3 74050.1 44070.1 57662.9 41247.5 40037.1 40027.5 39055.4 38676.5 38561.2 30102.4 22634.7 20593.2 18479.5 18408 16409.7 15705 14251.3 9777 74134.5 6445.71 5510.2 4086.68 2146.93 747.612 1618.51 585.701 433.891
threshold=168.16666666666671 268.85714285714295 75.166666666666671 318.39705882352945 218.25000000000003 115.07142857142858 31.250000000000004 0.18333333333333338 1.0000000180025095e-35 123.83295199571849 150.64333968279342 277.12500000000006 343.07142857142861 290.37500000000006 1.0000000180025095e-35 148.87500000000003 51.625000000000007 189.08333333333334 242.12500000000003 235.30000000000004 64.148262152651469 134.10000000000002 119.84389842148798 11.234550921918055 260.50000000000006 136.6477222359259 105.03738063357834 92.125000000000014 94.500000000000014 132.70000000000002 60.900000000000006 0.48333333333333339 98.125000000000014 11.500000000000002 0.51470588235294124 0.74640621775913074 127.16666666666667 244.25000000000003 108.50000000000001 128.63638676433061 0.56214887640449451 45.404405019219283 180.66578259316293 251.50000000000003 97.63790182646602 116.90000000000002 196.50000000000003 221.65000000000003 69.235320427718662 84.250000000000014 215.90000000000003 185.70000000000002 254.70000000000002 254.25000000000003
decision_type=2 2 2 2 2 2 2 2 2 2 2 2 2 2 2 2 2 2 2 2 2 2 2 2 2 2 2 2 2 2 2 2 2 2 2 2 2 2 2 2 2 2 2 2 2 2 2 2 2 2 2 2 2 2
left_child=2 4 6 13 7 14 33 17 22 10 18 37 -5 44 35 36 -8 25 19 -6 21 -19 -7 30 -25 27 -27 -2 38 -30 -15 -18 49 -1 -22 -4 46 47 -13 -32 -17 -38 -9 -42 45 -3 -10 -11 -33 -16 51 -46 -47 -20
right_child=1 3 5 12 9 8 16 42 15 11 -12 28 -14 23 32 40 31 20 53 -21 34 -23 -24 24 -26 26 -28 -29 29 -31 39 48 -34 -35 -36 -37 41 -39 -40 -41 43 -43 -44 -45 50 52 -48 -49 -50 -51 -52 -53 -54 -55
leaf_value=-3.6909942817041426 -1.4341525907814503 0.18079204097390175 -0.91157609673908779 3.347406539585156 0.94967756747177667 0.31335576797525089 -2.9247858086898444 1.8075013352751732 -1.3047297757684928 0.60326831579208373 -1.602120543888637 0.5842212146261464 3.8848876416446601 1.3064797628842868 -2.0589159289548093 0.38392140869465141 -2.4600819081612961 -1.7034496198529783 1.5240442005909272 1.8328435317474767 1.1110177977483218 0.52822139407026358 2.247320641004122 0.57811122131347659 2.5003849816322328 0.010225587795015241 2.1047565267086026 0.041304778597426969 1.8336233669810178 2.9588442199677227 2.6937139593045707 -1.6873607501983643 -1.505924179404974 -3.3437845943479112 0.52718891826059133 0.67544782628183775 -1.56563938331604 1.6907521648950214 2.0292731989984927 3.0702629936613688 -0.39562372403359541 -0.79449458915754412 3.5102553969163162 -1.1737433922809102 2.2770404207403154 1.6991795983034019 -0.59726377922555673 1.1994853615164756 -0.84514786347098969 -1.8356398200988768 2.6098583507537843 1.7901983314007519 2.397101894391235 1.869842267896308
leaf_weight=1177 29 21 32 1134 522 33 931 22 230 27 25 20 1307 23 423 24 1058 20 134 106 131 26 23 27 51 58 27 704 79 189 700 27 337 1215 501 20 27 155 20 489 555 523 23 20 449 48 20 117 20 675 131 77 63 180
leaf_count=1177 29 21 32 1134 522 33 931 22 230 27 25 20 1307 23 423 24 1058 20 134 106 131 26 23 27 51 58 27 704 79 189 700 27 337 1215 501 20 27 155 20 489 555 523 23 20 449 48 20 117 20 675 131 77 63 180
internal_value=0 2.25761 -2.36544 3.15215 0.957815 -1.22252 -3.12346 0.371923 -0.651776 1.52962 1.24173 1.9799 3.63961 2.57538 -1.77855 -0.727533 -2.65422 0.292058 1.32205 1.10675 0.573743 -0.486958 1.18154 2.77694 1.88104 0.0573399 0.724619 -0.0226772 2.50343 2.65113 2.82981 -2.41896 -1.83149 -3.51904 0.652881 -0.297634 -0.974611 1.42111 1.39792 2.85591 -0.394333 -0.840639 2.8428 -0.42864 2.23657 1.84597 -1.25589 1.10229 -1.40118 -1.92703 2.3063 2.21633 2.14796 1.73809
internal_weight=0 7635 7370 4520 3115 2942 4428 1541 1455 1574 967 607 2441 2079 1487 1399 2036 1496 942 628 678 46 56 1290 78 818 85 733 308 268 1212 1105 1435 2392 632 52 800 299 40 1189 599 550 45 575 789 132 250 144 47 1098 657 526 111 314
internal_count=15005 7635 7370 4520 3115 2942 4428 1541 1455 1574 967 607 2441 2079 1487 1399 2036 1496 942 628 678 46 56 1290 78 818 85 733 308 268 1212 1105 1435 2392 632 52 800 299 40 1189 599 550 45 575 789 132 250 144 47 1098 657 526 111 314
is_linear=0
shrinkage=0.03


Tree=12
num_leaves=55
num_cat=0
split_feature=142 132 142 132 132 142 142 154 155 132 137 132 132 134 132 155 163 137 132 136 136 10 132 135 135 132 59 7 155 134 159 155 154 134 142 132 155 154 136 154 135 8 132 163 55 14 59 154 136 63 142 132 132 132
split_gain=8.39297e+07 8.9939e+06 6.9584e+06 1.23093e+06 973308 970652 956404 422047 248476 165003 148638 148511 137050 124906 105300 104389 94906.9 85640.5 84174 82125.7 77679.7 68522.9 55917.4 48140.7 48037.4 41706.3 35568.3 39837.7 44171.4 34712 22130.9 19340.7 35079.3 18947.8 18761.4 17790.8 10474.6 67209.6 8605.99 6696.52 21179.2 8148.47 5801.71 4358.06 3073.1 3569.35 1819.88 1692.78 1881.25 1577.5 1371.43 1162.26 168.542 130.175
threshold=178.62500000000003 269.75000000000006 82.625000000000014 318.39705882352945 115.07142857142858 37.375000000000007 228.62500000000003 41.70000000000001 135.89304617898983 150.83333333333334 331.50000000000006 196.25000000000003 344.10000000000008 149.75000000000003 290.37500000000006 51.13120363046545 303.83333333333343 15.500000000000002 58.250000000000007 1.0000000180025095e-35 1.0000000180025095e-35 4.5000000000000009 175.50000000000003 131.53934656316946 106.49102680957755 94.750000000000014 78959.500000000015 3.5000000000000004 35.788822344631015 221.25000000000003 143.15763165099489 127.49321550103828 275.30000000000001 165.25000000000003 138.37500000000003 210.20000000000002 97.63790182646602 116.90000000000002 1.0000000180025095e-35 162.70000000000002 56.947065811828082 0.32500000000000007 81.166666666666671 72.618181818181839 99.500000000000014 3.5000000000000004 18255.000000000004 217.30000000000004 157.50000000000003 26.500000000000004 173.12500000000003 127.16666666666667 175.50000000000003 168.16666666666671
decision_type=2 2 2 2 2 2 2 2 2 2 2 2 2 2 2 2 2 2 2 2 2 2 2 2 2 2 2 2 2 2 2 2 2 2 2 2 2 2 2 2 2 2 2 2 2 2 2 2 2 2 2 2 2 2
left_child=2 6 5 14 19 17 11 -8 13 34 29 15 -5 -9 23 -2 -15 -1 38 24 -17 -12 -22 36 43 42 31 -28 -29 -10 -27 32 -16 47 51 44 37 -3 -7 41 -41 -36 -21 -4 -13 -46 -38 48 -11 -37 53 -6 -52 -35
right_child=1 3 4 12 9 18 7 8 10 33 21 35 -14 16 26 20 -18 -19 -20 25 22 -23 -24 -25 -26 30 27 28 -30 -31 -32 -33 -34 50 39 49 46 -39 -40 40 -42 -43 -44 -45 45 -47 -48 -49 -50 -51 52 -53 -54 -55
leaf_value=-3.5427013254330415 -1.8977145135402678 0.11698920825253362 -1.7586722922325133 3.2585198681624896 -1.12506974680323 -2.1402449886166321 -2.3546088473002116 -0.57487539820811318 0.29561580300331114 -0.46563296215465433 1.1506289549796813 0.16243197166002712 3.7710430846325185 1.268432740888346 2.4058466111453436 1.6347508697674191 3.2686243853361709 -3.140154984620505 -2.2145423628273657 -2.2215646061897276 -0.4509274703951982 2.9276813111657445 0.19421048480938585 3.4673042472671058 0.0218788343667984 -1.5634768181983161 2.7312486348152158 1.9787153732299805 0.075407246403072184 1.6321510581524816 -0.71013575506210325 2.9413221050292653 3.019012563963194 -0.17696727546778593 -0.42873276404644312 0.92089311115582251 2.2293067256781907 2.0435958980236735 -2.7134609684944153 -0.70131880071759212 0.34971873786138452 -0.87566858304023254 -1.831642193216914 -0.93953868605196478 0.24725376854430101 0.60950515358487545 1.4516480423722948 -0.16676708994684991 -0.3091912402448983 0.51227180184423926 -0.053232699300422043 -0.91635100841522221 0.010933859893616209 -0.11250367904179974
leaf_weight=1444 21 20 21 1161 210 95 24 31 21 231 28 23 1287 1375 521 26 20 1294 882 122 153 173 535 31 39 422 27 22 20 179 37 518 182 63 54 239 562 95 877 77 20 241 666 29 35 178 25 34 142 22 58 177 91 111
leaf_count=1444 21 20 21 1161 210 95 24 31 21 231 28 23 1287 1375 521 26 20 1294 882 122 153 173 535 31 39 422 27 22 20 179 37 518 182 63 54 239 562 95 877 77 20 241 666 29 35 178 25 34 142 22 58 177 91 111
internal_value=0 2.21702 -2.27168 3.0763 -1.10419 -2.9938 0.969103 1.3997 1.4528 -0.580312 2.11655 0.320328 3.53226 1.26209 2.52014 0.0487848 1.30406 -3.3561 -2.45421 -1.69328 0.113735 2.70069 0.0494075 2.20252 -0.775592 -1.75676 2.69509 1.84916 1.13783 1.49826 -1.49975 2.73824 2.57674 -0.254687 -0.883307 0.719204 2.13215 1.72003 -2.66419 -0.724463 -0.48062 -0.798996 -1.90021 -1.36365 0.518575 0.554241 2.20374 -0.390149 -0.409018 0.892663 -0.0819775 -1.03739 -0.0146014 -0.138448
internal_weight=0 7554 7437 4471 2845 4592 3083 1851 1827 1509 401 1232 2448 1426 2023 735 1395 2738 1854 1336 714 201 688 733 89 1247 1290 69 42 200 459 1221 703 730 779 497 702 115 972 392 97 295 788 50 236 213 587 407 373 261 323 387 149 174
internal_count=14991 7554 7437 4471 2845 4592 3083 1851 1827 1509 401 1232 2448 1426 2023 735 1395 2738 1854 1336 714 201 688 733 89 1247 1290 69 42 200 459 1221 703 730 779 497 702 115 972 392 97 295 788 50 236 213 587 407 373 261 323 387 149 174
is_linear=0
shrinkage=0.03


Tree=13
num_leaves=50
num_cat=0
split_feature=133 133 133 133 133 142 133 139 155 135 139 135 133 133 136 160 137 141 133 154 154 107 48 128 142 140 155 154 139 134 133 155 141 135 133 155 136 155 137 135 155 154 125 135 133 137 133 133 133
split_gain=8.02832e+07 8.59702e+06 6.21573e+06 1.14803e+06 1.0949e+06 889103 847763 325417 210845 204048 200320 171964 162333 128553 103323 102342 90572.3 87659.3 82614.3 81632.2 71397.6 68614.5 80049.7 74616.2 67233.5 54664.4 48391.2 75624.1 42630.7 35445.7 30704.6 29097.2 90322.5 83977 27772.5 24617.2 35704.1 24409.2 68272.8 35187.6 20659.1 57540.9 13215 7915.74 6148.81 6014.65 4594.33 3507.53 850.904
threshold=168.16666666666671 272.10714285714295 77.166666666666671 216.50000000000003 317.25000000000006 38.125000000000007 115.07142857142858 0.18333333333333338 125.23450003851968 131.09032786339407 0.48333333333333339 75.353701055806496 340.21794871794879 142.10000000000002 1.0000000180025095e-35 109.43411003420833 19.500000000000004 242.12500000000003 188.25000000000003 235.30000000000004 56.900000000000006 0.1904223426076895 252.10230909789229 25.500000000000004 62.375000000000007 0.63858695652173925 65.654550370232826 117.7 0.48333333333333339 92.250000000000014 242.16666666666671 134.56834693861376 94.125000000000014 105.03738063357834 210.20000000000002 41.70562821821175 1.5000000000000002 63.245553190718489 215.50000000000003 72.228728480564186 129.32594480465761 277.50000000000006 0.20458571428571434 180.66578259316293 356.70833333333343 113.50000000000001 255.16666666666671 287.28125000000006 221.65000000000003
decision_type=2 2 2 2 2 2 2 2 2 2 2 2 2 2 2 2 2 2 2 2 2 2 2 2 2 2 2 2 2 2 2 2 2 2 2 2 2 2 2 2 2 2 2 2 2 2 2 2 2
left_child=2 3 5 7 20 16 14 18 9 17 13 30 -6 35 42 -11 -1 19 31 -5 -3 23 -23 -13 -7 47 27 -20 -26 -16 48 32 -2 -33 -28 -8 -37 38 -15 -39 41 -27 -4 -9 -14 -30 -19 -22 -10
right_child=1 4 6 8 12 24 10 43 11 15 -12 21 44 37 29 -17 -18 46 26 -21 25 22 -24 -25 28 40 34 -29 45 -31 -32 33 -34 -35 -36 36 -38 39 -40 -41 -42 -43 -44 -45 -46 -47 -48 -49 -50
leaf_value=-3.4053803141837897 -1.8234422087669373 0.70465710322062169 0.13448547072708605 0.95505851894538518 3.0795531094270809 -2.5629535261060847 -1.8201190236210822 1.8717523233095805 0.68000436320900914 -1.5918081231678234 2.0032049868657036 0.077478884288242886 3.4379683107778845 -0.44592604179273948 -1.8251085565711458 0.86709379332406178 -2.9919030847602617 1.4581162235348724 -1.6727815296338953 1.8877884903635296 2.096974167632502 2.8096363886491749 1.1339050863918503 2.3235950443662445 -2.1994294630303211 2.2000308765390537 0.47390832390512483 0.67709411250220408 -1.4372417110866968 -1.4659735039920525 1.6484239703138297 -0.058865865087509149 0.052656256417313904 1.7478530906228458 0.96133747794223534 0.19711201588312785 -0.95980538036960827 -0.4025718467618194 -2.2075010591745379 0.21563181946277618 2.8799961767735933 2.8978561834912551 -0.81695218189902929 3.3379128148005557 3.7776040746567401 -0.59000715089880895 1.8091564845269725 2.3907012313746949 1.0710777790030253
leaf_weight=1717 21 24 29 566 1028 978 29 24 29 31 23 25 750 129 871 25 1073 169 20 102 427 240 35 26 756 386 539 24 24 488 211 72 610 31 134 24 621 506 21 97 375 225 20 23 798 20 245 415 94
leaf_count=1717 21 24 29 566 1028 978 29 24 29 31 23 25 750 129 871 25 1073 169 20 102 427 240 35 26 756 386 539 24 24 488 211 72 610 31 134 24 621 506 21 97 375 225 20 23 798 20 245 415 94
internal_value=0 2.14173 -2.22599 0.980385 3.00494 -2.91239 -1.12701 0.365903 1.49088 1.23687 -0.615929 1.92127 3.40817 -0.662258 -1.6509 -0.505811 -3.24975 1.32821 0.283285 1.10528 2.43946 2.41758 2.6109 1.28803 -2.37844 2.46105 0.511624 -0.429626 -2.14414 -1.69966 1.41964 0.0590607 -0.0181141 0.518982 0.574795 -0.962837 -0.916044 -0.390461 -0.730995 -0.302551 2.63414 2.46991 -0.278584 2.74646 3.62002 -1.11438 1.67738 2.24972 0.997259
internal_weight=0 7724 7426 3296 4428 4568 2858 1498 1798 1138 1450 660 2576 1427 1408 56 2790 1082 1451 668 1852 326 275 51 1778 1828 717 44 800 1359 334 734 631 103 673 674 645 753 150 603 986 611 49 47 1548 44 414 842 123
internal_count=15150 7724 7426 3296 4428 4568 2858 1498 1798 1138 1450 660 2576 1427 1408 56 2790 1082 1451 668 1852 326 275 51 1778 1828 717 44 800 1359 334 734 631 103 673 674 645 753 150 603 986 611 49 47 1548 44 414 842 123
is_linear=0
shrinkage=0.03


Tree=14
num_leaves=57
num_cat=0
split_feature=134 134 142 136 134 142 142 154 142 142 155 155 135 136 135 155 154 154 142 142 134 135 134 135 156 142 154 137 154 130 155 154 136 136 12 136 134 134 121 134 136 155 154 143 134 163 163 134 134 137 155 135 135 136 137 134
split_gain=7.53511e+07 7.24273e+06 6.34149e+06 1.09253e+06 937000 888638 855802 234355 173857 172238 146988 120407 175642 119890 114658 112386 303474 107830 100681 99644.8 96552 94343.3 93148.6 88907.6 80701.9 76422.4 70101.2 60983.7 57832.9 49647.7 48288.6 51882.8 30603 24268.1 24045.6 22233.1 19865 19187.3 17172.3 15451.1 15220.5 14124.9 10846.2 8502.81 8375.47 9426.91 7647.19 7082.83 4694.83 4425.7 4000.24 3654.45 3189.24 3027.68 428.934 6.78418
threshold=171.25000000000003 280.25000000000006 82.625000000000014 316.50000000000006 226.75000000000003 130.12500000000003 35.125000000000007 56.900000000000006 337.12500000000006 207.12500000000003 48.482159756752701 109.42029061740458 128.60660608051407 1.0000000180025095e-35 83.429264772875015 129.32594480465761 172.30000000000004 71.500000000000014 114.62500000000001 59.125000000000007 252.75000000000003 175.49492803306308 342.25000000000006 125.86500705120547 125.25000000000001 154.25000000000003 106.50000000000001 13.500000000000002 201.10000000000002 218.50000000000003 77.856277830528171 159.10000000000002 102.50000000000001 156.50000000000003 34.500000000000007 184.50000000000003 92.250000000000014 295.25000000000006 7.5000000000000009 139.25000000000003 2.5000000000000004 84.112067889593064 100.7 275.50000000000006 110.75000000000001 107.31009615384617 109.46428571428574 147.25000000000003 195.75000000000003 230.50000000000003 127.75773948918842 59.514587841586149 91.209864485632025 58.500000000000007 107.50000000000001 187.25000000000003
decision_type=2 2 2 2 2 2 2 2 2 2 2 2 2 2 2 2 2 2 2 2 2 2 2 2 2 2 2 2 2 2 2 2 2 2 2 2 2 2 2 2 2 2 2 2 2 2 2 2 2 2 2 2 2 2 2 2
left_child=2 4 6 7 9 18 27 -3 14 35 17 12 33 21 37 16 -10 -7 36 54 30 34 -5 42 -14 39 -16 -1 -27 -25 31 -6 -22 -11 -12 49 52 -9 43 -15 -20 -34 -13 -32 45 -42 -17 -19 55 51 -43 -2 53 -4 -8 -37
right_child=1 3 5 22 20 10 19 8 15 11 13 23 24 25 26 46 -18 47 40 -21 32 -23 -24 29 -26 28 -28 -29 -30 -31 38 -33 41 -35 -36 48 -38 -39 -40 -41 44 50 -44 -45 -46 -47 -48 -49 -50 -51 -52 -53 -54 -55 -56 -57
leaf_value=-3.3530169021984761 0.023591007260869427 -0.39949808465582981 -2.0831310929570881 3.0323810140083673 -0.79625600617864856 -2.8552442636489865 -2.5714369050740724 2.1346802673339842 0.78109995713600744 0.053986602807944678 0.51682690564323863 1.5180906753954679 -2.4985022838592528 -0.93908622521293028 0.81251799896785182 1.9147981658935547 2.7428349277034805 -0.97491025219792904 -0.25917344321375307 -2.093292893284723 0.81767304454530987 2.0994855063302178 3.5517382636176213 0.67420402395314183 0.050766404193380604 -0.41274914741085833 1.9471217909166887 -2.9917838330793716 0.30782519204275949 2.2796583235407448 1.2959725445383912 1.0157448304954328 1.1805926276667642 0.7852311537722324 -0.65912666781195284 0.16985398546341926 -1.455836330631801 2.505323196959603 0.48737934112548831 -0.58624546362998631 -1.7538705316711873 1.7096649766164389 0.76072991943245305 2.0052140956454809 -1.0607278686994082 -0.80869308056831357 3.1333420178771676 -0.18044834461063147 0.47064444568795216 0.40658085197210309 2.0020529483067051 -0.35630486577749249 -1.1007295866195972 -1.7387299947419232 -1.6489051866531372 0.25224895301854833
leaf_weight=1328 449 25 123 646 20 37 1003 357 88 50 31 20 22 270 67 22 441 20 20 943 39 25 1347 26 20 655 276 1278 116 80 569 35 56 232 26 28 347 827 27 232 48 453 206 24 305 22 540 21 139 23 238 21 23 624 21 209
leaf_count=1328 449 25 123 646 20 37 1003 357 88 50 31 20 22 270 67 22 441 20 20 943 39 25 1347 26 20 655 276 1278 116 80 569 35 56 232 26 28 347 827 27 232 48 453 206 24 305 22 540 21 139 23 238 21 23 624 21 209
internal_value=0 2.11165 -2.12046 2.85361 0.958002 -1.03323 -2.8195 2.4471 2.4747 0.436534 -0.49639 0.802379 0.385614 -0.421099 2.25361 2.77712 2.42274 -1.74029 -1.54003 -2.33842 1.5003 0.673447 3.38821 1.20201 -1.36211 -0.493022 1.73446 -3.17951 -0.303563 1.91526 1.22469 0.349731 1.73143 0.657511 -0.0257093 0.158551 -1.68823 2.39924 1.30025 -0.780472 -1.11138 1.77568 0.846763 1.33463 -1.15442 -1.50226 3.09606 -0.608039 0.331329 0.0255704 1.81859 0.00446473 -1.7869 -1.80354 -2.55739 0.244759
internal_weight=0 7622 7518 4636 2986 2945 4573 2643 2618 1525 1433 656 324 1355 1527 1091 529 78 1512 1967 1461 82 1993 332 42 1273 343 2606 771 106 675 55 786 282 57 869 1117 1184 620 502 395 747 226 593 375 70 562 41 376 493 691 470 770 747 1024 237
internal_count=15140 7622 7518 4636 2986 2945 4573 2643 2618 1525 1433 656 324 1355 1527 1091 529 78 1512 1967 1461 82 1993 332 42 1273 343 2606 771 106 675 55 786 282 57 869 1117 1184 620 502 395 747 226 593 375 70 562 41 376 493 691 470 770 747 1024 237
is_linear=0
shrinkage=0.03


Tree=15
num_leaves=54
num_cat=0
split_feature=132 132 132 132 132 132 142 139 139 163 132 155 132 144 154 142 139 142 134 155 154 154 60 155 137 106 134 139 132 60 137 161 1 22 155 132 163 157 161 44 143 135 144 60 132 134 135 132 154 142 134 142 132
split_gain=7.05112e+07 7.94738e+06 5.24007e+06 1.07837e+06 1.00517e+06 794297 678976 329191 174872 161223 149123 137332 127436 109839 181634 95704.3 91924.4 88917.1 82882.3 74821.7 70037.1 65876.8 171500 98784.4 164013 52358.3 42484.7 40502.7 34667.8 31985.1 31978.2 31622.2 51716.8 28253.8 28077.3 26951.6 26084.1 22053.1 21123.1 17061.3 39538.8 15601.4 10074.8 10000.2 9229.61 6560.4 5589.21 3589.53 2804.72 22635.5 2647.4 2257.11 261.019
threshold=166.16666666666671 273.16666666666669 73.071428571428584 227.75000000000003 318.39705882352945 115.07142857142858 31.250000000000004 0.18333333333333338 0.48333333333333339 298.14285714285717 189.08333333333334 125.23450003851968 349.12500000000006 92.750000000000014 146.10000000000002 287.12500000000006 0.48333333333333339 51.625000000000007 147.25000000000003 102.72779549918714 41.70000000000001 231.50000000000003 11.191202851252969 112.39483962073389 339.50000000000006 1.1618347338935577 94.250000000000014 0.48333333333333339 286.25000000000006 6.0901773787622728 10.500000000000002 175.50406504065043 90.500000000000014 4.1777777777777789 45.404405019219283 263.58333333333343 141.45000000000002 153.68490491906832 123.89285714285715 16.410436852790827 66.500000000000014 128.60660608051407 80.250000000000014 11.431281297851614 242.16666666666671 330.25000000000006 73.750938893995794 65.250000000000014 99.90000000000002 132.87500000000003 234.25000000000003 121.37500000000001 85.833333333333357
decision_type=2 2 2 2 2 2 2 2 2 2 2 2 2 2 2 2 2 2 2 2 2 2 2 2 2 2 2 2 2 2 2 2 2 2 2 2 2 2 2 2 2 2 2 2 2 2 2 2 2 2 2 2 2
left_child=2 3 6 7 21 16 30 9 18 10 33 13 -6 35 19 44 26 -8 34 -15 -12 22 23 24 -3 -16 52 47 -25 45 -1 37 -33 -2 38 42 -36 -17 -7 41 -41 -20 -5 -31 -13 -23 -29 -19 51 -50 -9 -28 -4
right_child=1 4 5 11 12 8 17 50 -10 -11 20 15 -14 14 25 31 -18 27 39 -21 -22 29 -24 28 -26 -27 48 46 -30 43 -32 32 -34 -35 36 -37 -38 -39 -40 40 -42 -43 -44 -45 -46 -47 -48 -49 49 -51 -52 -53 -54
leaf_value=-3.2821178218296594 0.66994502917716381 2.1219897834511543 -1.8288044795260499 1.3334698303558223 3.0070678378668698 -2.1741710868248574 -2.5844040066568477 3.2796494796752929 1.8427807044982909 2.8354335463176601 -0.97874041392252997 1.0783290736065354 3.4950724711551842 -1.2374250581047752 1.9104284070667465 2.518091877710039 0.15306585295446987 -2.2786438828231699 -0.37788111341461328 0.38883352764317247 0.61265260370299879 2.2684735745046196 -0.2651366233399936 1.9658738185629552 0.55605316775427627 0.6084142817191357 -1.3897125324521746 -1.48053320646286 2.470839890607277 2.885401747583229 -2.9705469408431107 2.4292541839599608 0.49924074858427048 -0.02068261926743117 -0.88349380353976992 1.7721169594416151 -0.44900647661323806 1.2061698222160337 -0.71216739177703858 -0.33741939675807953 1.1099702111534451 -1.1229198191847118 0.57850399457491353 1.7954830579757688 1.5646593089578276 1.2931013870239259 -0.67247935533523551 -2.0010129685738587 -1.341239580293186 -0.42685123999203956 2.006867765079845 -1.9514682852837348 -1.6412316761619743
leaf_weight=1103 54 228 533 559 1427 23 947 22 23 20 23 83 1067 41 73 211 26 662 423 58 901 161 25 242 85 50 207 31 799 318 1292 22 29 822 609 181 169 21 20 62 20 25 23 27 208 21 21 344 189 32 30 28 519
leaf_count=1103 54 228 533 559 1427 23 947 22 23 20 23 83 1067 41 73 211 26 662 423 58 901 161 25 242 85 50 207 31 799 318 1292 22 29 822 609 181 169 21 20 62 20 25 23 27 208 21 21 344 189 32 30 28 519
internal_value=0 1.9767 -2.11972 0.893298 2.82033 -1.12987 -2.7727 0.406905 -0.604027 0.337208 0.304778 1.47544 3.2198 1.25226 0.652047 1.84992 -1.59877 -2.35623 -0.649673 -0.301254 0.570001 2.29339 2.16711 2.2125 1.70605 1.40824 -1.62922 -2.14527 2.35944 2.6097 -3.11797 2.25359 1.4205 0.0240315 -0.838393 1.42366 -0.7912 2.41625 -1.58496 -0.354263 0.0423183 -0.42665 1.30675 2.81632 1.43837 2.17872 -1.20868 -2.18994 -1.3612 -1.21633 2.69487 -1.4804 -1.7412
internal_weight=0 7831 7308 3431 4400 2908 4400 1872 1374 1820 1800 1559 2494 985 222 574 1534 2005 1351 99 924 1906 1379 1354 313 123 1508 1058 1041 527 2395 283 51 876 821 763 778 232 43 530 82 448 582 345 291 182 52 1006 456 221 52 235 1052
internal_count=15139 7831 7308 3431 4400 2908 4400 1872 1374 1820 1800 1559 2494 985 222 574 1534 2005 1351 99 924 1906 1379 1354 313 123 1508 1058 1041 527 2395 283 51 876 821 763 778 232 43 530 82 448 582 345 291 182 52 1006 456 221 52 235 1052
is_linear=0
shrinkage=0.03


Tree=16
num_leaves=52
num_cat=0
split_feature=132 132 132 132 132 132 142 139 139 132 139 155 132 163 135 132 141 156 135 155 135 15 21 132 137 59 155 132 155 134 156 155 139 137 132 139 155 155 7 30 155 23 134 134 163 155 136 143 155 136 137
split_gain=6.65631e+07 7.00776e+06 5.57393e+06 1.15569e+06 773233 743706 712092 228245 192328 152633 143482 120343 98881 93049.7 85864.1 83122.2 79148.5 76313.3 119508 71722.8 249432 70024 68720.6 56286.7 51540.1 44006.6 44422.3 41298.5 37209.6 35866.2 32812.7 31159.4 28826.3 28206.8 25444.8 25112.2 24117.7 20425.7 19379.5 19072.3 18249.6 13049.4 10317.6 8763.64 8899.05 7884.98 22343.9 5616.54 2261.35 2224.14 1894.69
threshold=180.25000000000003 77.166666666666671 279.08333333333343 123.25000000000001 331.9285714285715 230.16666666666671 31.250000000000004 0.31666666666666671 0.22500000000000003 146.75000000000003 0.31666666666666671 125.23450003851968 56.250000000000007 270.75000000000006 67.728450536580212 300.08333333333343 237.12500000000003 186.25000000000003 122.05518006300697 109.42029061740458 125.86500705120547 3.8815106545092593 0.010293294897359188 94.750000000000014 218.50000000000003 75700.500000000015 71.377867709422517 355.47222222222229 144.55863862008991 165.25000000000003 96.050000000000011 114.70483860549901 0.48333333333333339 11.500000000000002 260.33333333333343 0.31666666666666671 128.63638676433061 41.70562821821175 168.50000000000003 0.11647286821705428 112.39483962073389 0.16843971631205676 245.25000000000003 110.75000000000001 171.50000000000003 36.706944170469036 229.50000000000003 17.500000000000004 39.218361441151188 45.500000000000007 354.50000000000006
decision_type=2 2 2 2 2 2 2 2 2 2 2 2 2 2 2 2 2 2 2 2 2 2 2 2 2 2 2 2 2 2 2 2 2 2 2 2 2 2 2 2 2 2 2 2 2 2 2 2 2 2 2
left_child=1 6 5 10 15 8 33 9 13 37 23 16 32 19 42 40 17 18 -7 20 -2 -16 -23 -3 -21 36 -27 -6 29 -11 -12 -19 49 -1 47 -14 48 -5 -39 -9 45 -42 -13 44 -25 -4 -47 -18 -17 -8 -36
right_child=2 3 4 7 27 11 12 39 -10 28 30 14 35 -15 21 25 34 31 -20 24 -22 22 -24 43 -26 26 -28 -29 -30 -31 -32 -33 -34 -35 50 -37 -38 38 -40 -41 41 -43 -44 -45 -46 46 -48 -49 -50 -51 -52
leaf_value=-3.1741441342608727 0.41123511638333193 -1.6608750419182028 2.6448570467078163 -1.6607418422698974 3.0702255241304401 0.92312474188576266 -2.5603368655831082 0.8374492881774902 2.7326898550987244 -0.38990255244493149 -0.7295546955532497 1.0620873727621856 -2.0200581335032637 2.3609736233949659 0.80062484998960748 2.8609785820717035 1.3481452103857379 1.7681582022848583 -1.0179128323495388 0.35807998432832605 -1.8329527509212493 0.65004694661268825 2.4596492880603869 -1.4213173267942283 0.93781042369297696 2.2421320484269338 0.68305980049073689 3.4495654836194265 0.7704240637200086 -0.048517206429732812 0.67147298160721269 0.48680762075460865 -1.6561843325110044 -2.8786018126373287 1.6553448130475712 -0.80471009969711293 2.7725899088042123 -0.78459001731140943 -0.033156796097755431 2.2115407406751597 2.5932354512214659 2.0877806333655662 1.5692385121583938 -1.0958997229752183 -0.70822160260430689 1.2580155598981813 1.9709973541120203 0.68430097045898441 2.3537413814575432 -2.2747464213651765 2.1864534943212162
leaf_weight=1168 629 913 20 22 1146 305 836 22 33 570 24 78 856 21 34 83 284 123 29 235 45 23 280 369 352 50 29 809 32 538 31 23 65 1247 279 21 627 551 33 25 147 349 237 258 26 85 161 22 654 354 41
leaf_count=1168 629 913 20 22 1146 305 836 22 33 570 24 78 856 21 34 83 284 123 29 235 45 23 280 369 352 50 29 809 32 538 31 23 65 1247 279 21 627 551 33 25 147 349 237 258 26 85 161 22 654 354 41
internal_value=0 -1.8977 2.07737 -0.8694 2.793 1.10682 -2.66869 -0.34366 0.56533 -0.40027 -1.44922 1.51021 -2.26106 0.50329 1.84008 2.3997 1.3113 1.00868 0.74703 0.466823 0.253942 2.18413 2.33001 -1.50201 0.708722 2.54487 1.71574 3.23225 -0.194836 -0.224718 0.0540018 1.58017 -2.44263 -3.0253 1.53742 -1.9938 2.58902 -0.783867 -0.742515 1.65719 2.1159 2.25227 1.45486 -1.27332 -1.38007 1.83933 1.74277 1.30752 2.42223 -2.48131 1.74307
internal_weight=0 7961 7233 3414 4160 3073 4547 1793 1315 1746 1621 1758 2132 1282 652 2205 1106 480 334 1261 674 337 303 1566 587 1443 79 1955 1140 1108 55 146 1255 2415 626 877 1364 606 584 47 762 496 315 653 395 266 246 306 737 1190 320
internal_count=15194 7961 7233 3414 4160 3073 4547 1793 1315 1746 1621 1758 2132 1282 652 2205 1106 480 334 1261 674 337 303 1566 587 1443 79 1955 1140 1108 55 146 1255 2415 626 877 1364 606 584 47 762 496 315 653 395 266 246 306 737 1190 320
is_linear=0
shrinkage=0.03


Tree=17
num_leaves=63
num_cat=0
split_feature=132 132 132 132 132 132 132 136 155 135 154 136 132 155 140 137 137 123 132 132 158 132 137 157 159 132 154 141 154 154 60 132 157 20 154 132 132 154 135 163 155 135 163 134 156 155 136 141 155 156 132 136 155 144 35 163 44 104 144 154 125 134
split_gain=6.24833e+07 5.82964e+06 5.74509e+06 841496 780093 778658 764257 147404 137124 135606 137379 132356 115460 110674 169329 164643 106066 100209 84662.5 76903.4 76790.3 70671.3 70494.1 68569.1 61451.3 61092.2 55518.6 50336.5 66613.5 50256.5 42912.3 42741.8 37934.4 36439.4 34169.5 32789.7 31931.6 31119.5 27949.4 27291 30172.2 25967 25165.9 23289.6 20187.4 18740.1 22393 20373.9 17030.3 15847.4 11230.2 9605.1 8727.9 22657.2 7117.25 6655.5 4654.87 4089.39 3452.8 3408.27 3136.61 3091.02
threshold=177.05000000000004 80.166666666666671 275.87500000000006 129.12500000000003 226.35000000000002 331.9285714285715 36.125000000000007 1.0000000180025095e-35 123.4001620535867 130.52899425442192 142.50000000000003 1.0000000180025095e-35 297.54166666666674 109.42029061740458 0.2678571428571429 265.50000000000006 355.50000000000006 1.4821795312961112 101.25000000000001 56.250000000000007 144.22500000000002 152.16666666666671 22.500000000000004 155.97475718445324 121.17350679877829 214.25000000000003 115.30000000000003 237.12500000000003 235.30000000000004 62.900000000000006 11.276701141356435 355.47222222222229 122.08779626580763 0.006019346554498848 260.50000000000006 198.25000000000003 253.33823529411768 111.50000000000001 89.7157128045083 34.050000000000004 98.789878003272207 140.15162904400776 211.26666666666668 182.75000000000003 103.25000000000001 127.49321550103828 248.50000000000003 242.12500000000003 138.82478157283995 221.25000000000003 255.16666666666671 1.0000000180025095e-35 41.70562821821175 102.00000000000001 2.5000000000000004 288.66666666666669 17.886489866265585 1444.5000000000002 14.125000000000002 205.30000000000004 0.0051878306878306892 213.25000000000003
decision_type=2 2 2 2 2 2 2 2 2 2 2 2 2 2 2 2 2 2 2 2 2 2 2 2 2 2 2 2 2 2 2 2 2 2 2 2 2 2 2 2 2 2 2 2 2 2 2 2 2 2 2 2 2 2 2 2 2 2 2 2 2 2
left_child=1 6 4 11 13 12 22 32 9 27 -11 41 45 14 25 35 36 20 56 51 -17 42 -1 33 -19 43 -16 28 -6 -14 49 -7 -5 -18 -32 54 37 -10 -21 -23 -41 44 48 -2 -3 47 -47 -4 -9 -31 -29 -8 58 -54 -15 -49 -13 -38 -20 -27 -58 -37
right_child=2 3 5 7 8 31 19 21 16 10 -12 18 29 15 26 17 23 24 52 38 -22 39 -24 -25 -26 59 -28 50 -30 30 34 -33 -34 -35 -36 61 57 -39 -40 40 -42 -43 -44 -45 -46 46 -48 55 -50 -51 -52 -53 53 -55 -56 -57 60 -59 -60 -61 -62 -63
leaf_value=-2.9978953521179812 -0.088996365264058103 -1.0126003593983857 0.78098051605224605 0.2497759547959203 0.82258381842906458 2.9672281813057908 -1.721892450907651 -0.61772538056283666 0.025810177429862642 -1.8436995135413274 1.1868054029676649 -1.5892821921291866 0.8797387298583984 0.18739643560384595 -2.2419147011541551 2.9897239558550774 0.98969056844711312 1.8083643649606143 -1.0139706454069717 -1.9230731573247197 0.98548187255859376 -1.2135621968041295 -2.6115586219515117 0.57998436487638039 0.55625668529281047 0.79079850123553974 -0.23552722492218015 1.2578082200522736 1.7271551065542259 2.4338046382404865 0.55567399758559011 3.3448328808342818 1.9909178085984855 2.5038314331504141 2.0735797157287599 0.49686882330951365 1.2143768425874932 1.2684354896180368 -0.84715025749057526 -0.34411486750199821 0.033707829155633605 0.829318766593933 0.36794955626777981 0.32689268738426641 0.25995734608691673 2.5623381580710407 1.8695864371748159 1.7593898283406479 -1.2657567627485409 2.7907669933703985 1.6234761543075242 -2.3467028828457259 -1.0925028999657731 -0.13295575035942925 -0.35955820385366677 2.2020684859074584 -0.66939605464106011 1.8139558284969652 -1.9547737362073816 1.3195882154547649 -1.3260980474948882 0.78868180720311287
leaf_weight=1888 177 20 22 20 358 1118 65 514 20 24 24 881 22 212 28 46 21 48 20 1002 33 20 858 23 130 119 22 211 95 1117 23 824 26 219 42 85 40 206 29 392 366 21 20 374 20 137 148 362 40 338 294 842 550 24 21 106 20 174 20 20 45 103
leaf_count=1888 177 20 22 20 358 1118 65 514 20 24 24 881 22 212 28 46 21 48 20 1002 33 20 858 23 130 119 22 211 95 1117 23 824 26 219 42 85 40 206 29 392 366 21 20 374 20 137 148 362 40 338 294 842 550 24 21 106 20 174 20 20 45 103
internal_value=0 -1.89308 1.96803 -0.863882 0.990197 2.68476 -2.55546 -0.323516 1.42143 1.18912 -0.347767 -1.32845 2.30605 0.468563 0.213539 0.74474 1.7474 1.33916 -1.38196 -2.09163 2.21919 -0.381349 -2.88016 2.23565 0.91828 0.33773 -1.42241 1.26697 1.0224 2.46425 2.4854 3.13236 1.29554 2.3852 1.58469 0.374966 1.4424 1.16025 -1.89536 -0.193853 -0.16227 0.0405135 -0.633152 0.193536 -0.402576 1.98298 2.22582 1.82906 -0.67108 2.5223 1.47902 -2.30775 -1.09566 -1.05328 0.134156 1.87304 -1.56372 1.72022 -1.58793 0.893155 -1.16248 0.666622
internal_weight=0 7703 7386 3019 3127 4259 4684 1398 1709 1006 48 1621 2317 1418 740 678 703 257 1560 1938 79 1352 2746 263 178 690 50 958 453 1542 1520 1942 46 240 65 421 440 226 1031 778 758 61 574 551 40 775 285 490 554 1455 505 907 614 574 233 468 946 214 40 139 65 188
internal_count=15089 7703 7386 3019 3127 4259 4684 1398 1709 1006 48 1621 2317 1418 740 678 703 257 1560 1938 79 1352 2746 263 178 690 50 958 453 1542 1520 1942 46 240 65 421 440 226 1031 778 758 61 574 551 40 775 285 490 554 1455 505 907 614 574 233 468 946 214 40 139 65 188
is_linear=0
shrinkage=0.03


Tree=18
num_leaves=60
num_cat=0
split_feature=132 132 132 132 132 132 132 136 132 136 132 59 132 155 154 143 155 132 123 140 132 136 12 132 154 137 154 144 137 132 136 59 125 155 137 136 155 155 152 132 155 154 134 154 155 30 102 65 128 121 134 136 136 157 163 157 132 141 155
split_gain=5.83956e+07 6.13833e+06 5.15588e+06 863396 812467 691339 598063 236975 129514 120950 140620 96362.8 93395.7 93072.9 89241.3 180521 131047 88318.5 73476.3 70655.5 63353.5 59421.6 55351.4 51303.8 51187 38641 37679.7 120342 112165 32835.8 32554.4 29866.8 41915.4 68930 27272.2 26283 26064.3 24863.6 24432.4 19823.8 19439.5 38611.6 17147.7 15849 14209.3 13889.9 12786.2 12738.2 12135.6 11607.5 9943.33 9859.94 6801.42 6743.66 4110.61 2194.08 2177.28 1641.26 8346.21
threshold=174.25000000000003 275.87500000000006 75.166666666666671 115.07142857142858 230.16666666666671 327.58333333333343 29.166666666666668 1.0000000180025095e-35 146.75000000000003 1.0000000180025095e-35 208.16666666666671 1055.0000000000002 293.12500000000006 134.78219466160255 235.30000000000004 185.50000000000003 100.47606662454668 50.250000000000007 3.1955092523046211 0.43928571428571433 353.20000000000005 1.0000000180025095e-35 41.500000000000007 273.16666666666669 48.500000000000007 293.50000000000006 154.70000000000002 53.250000000000007 342.50000000000006 98.125000000000014 22.500000000000004 75700.500000000015 0.53330000000000011 36.706944170469036 9.5000000000000018 1.5000000000000002 87.128181346634818 139.13101727126769 0.34057971014492755 131.75000000000003 127.49321550103828 275.30000000000001 321.25000000000006 131.10000000000002 151.16877984349105 0.12220009955201594 88.500000000000014 0.0059155553958946793 68.500000000000014 7.5000000000000009 237.25000000000003 1.0000000180025095e-35 276.50000000000006 134.11526743661688 153.48913043478265 85.40216601479942 244.25000000000003 85.125000000000014 144.55863862008991
decision_type=2 2 2 2 2 2 2 2 2 2 2 2 2 2 2 2 2 2 2 2 2 2 2 2 2 2 2 2 2 2 2 2 2 2 2 2 2 2 2 2 2 2 2 2 2 2 2 2 2 2 2 2 2 2 2 2 2 2 2
left_child=2 4 6 21 9 12 34 22 39 11 26 -2 44 14 15 36 -17 51 38 50 -7 43 25 45 -12 -5 27 -11 -28 57 -10 40 33 -33 -1 -19 -6 -26 -16 53 41 -14 -42 -4 49 -21 -32 -41 -13 55 -15 -8 -46 -9 -31 -3 -52 58 -23
right_child=1 5 3 7 13 20 17 8 30 10 24 48 31 19 18 16 -18 35 -20 23 -22 29 -24 -25 37 -27 28 -29 -30 54 46 32 -34 -35 -36 -37 -38 -39 -40 47 42 -43 -44 -45 52 -47 -48 -49 -50 -51 56 -53 -54 -55 -56 -57 -58 -59 -60
leaf_value=-3.0129369712542657 2.5094044876098631 1.0501065376530523 -0.82630781302580969 0.77598158302514442 0.77297972097813361 2.8241148888026921 -1.744020736650987 -0.88647024926212092 0.77205896165635846 0.19235997119295431 -0.54666203604804142 1.1419120636582374 2.0793303540619936 0.70482830112980266 1.5276513116700308 -0.84053106427192692 0.77279564293141056 -1.0446289307572121 2.4386023331806062 1.8027119856975116 3.2239717781790729 -1.6883151236372105 0.059675787305831909 0.78702833811442063 0.73486340712000897 2.7136121220588683 0.19578312242212137 -0.89455083494595833 1.7834611863675325 -1.2382332354278847 -0.72734617245824718 1.9232913335164388 2.5687484809068533 -0.35524747516797939 -2.721913221849964 -1.9633495383234336 1.3966944052182575 1.4237391018045358 0.52082402248131598 -0.2200584471321875 2.2981986064889597 2.6528028062511892 2.7423153165288872 0.18351567536592484 2.9637448806762694 2.6712462093633245 -0.25571307282088551 -0.71369375169277183 0.256479207447597 2.4126990938186643 0.97891194736256315 -2.3847987789811493 1.6047707499628481 -1.2952902519135248 -0.68971988760191816 1.756273908859006 1.5207908660418366 -1.4798763404598305 -0.87608448944091799
leaf_weight=1034 40 20 34 20 80 1226 63 321 24 574 24 21 580 28 81 57 185 40 93 58 914 515 22 24 446 22 318 106 43 320 54 24 23 20 1303 1008 677 55 35 59 333 201 367 21 27 106 727 321 39 45 31 995 20 60 26 476 143 551 22
leaf_count=1034 40 20 34 20 80 1226 63 321 24 574 24 21 580 28 81 57 185 40 93 58 914 515 22 24 446 22 318 106 43 320 54 24 23 20 1303 1008 677 55 35 59 333 201 367 21 27 106 727 321 39 45 31 995 20 60 26 476 143 551 22
internal_value=0 1.86634 -1.86391 -0.927683 0.885447 2.61395 -2.52007 -0.449359 -0.523253 0.420746 0.354456 1.41828 2.22434 1.36823 1.2312 1.10655 0.387158 -2.14557 1.80292 1.78002 2.99917 -1.44934 1.30119 2.21142 0.753354 1.90418 0.151697 0.0197447 0.398037 -1.48661 -0.256539 2.35385 1.57922 0.931025 -2.85437 -1.93137 1.33409 0.818513 1.24466 -0.803272 2.38563 2.23651 2.54175 -0.45119 1.87316 2.40198 -0.290981 -0.639374 0.606 1.80371 1.35204 -2.35168 2.51644 -0.960468 -1.2033 1.73428 1.44248 -1.57314 -1.66009
internal_weight=0 7540 7562 3119 3264 4276 4443 1630 1566 1666 1566 100 2136 1598 1208 999 242 2106 209 390 2140 1489 64 188 525 42 1041 680 361 1434 805 1548 67 44 2337 1048 757 501 116 761 1481 781 700 55 588 164 781 380 60 541 202 1058 47 381 346 496 174 1088 537
internal_count=15102 7540 7562 3119 3264 4276 4443 1630 1566 1666 1566 100 2136 1598 1208 999 242 2106 209 390 2140 1489 64 188 525 42 1041 680 361 1434 805 1548 67 44 2337 1048 757 501 116 761 1481 781 700 55 588 164 781 380 60 541 202 1058 47 381 346 496 174 1088 537
is_linear=0
shrinkage=0.03


Tree=19
num_leaves=48
num_cat=0
split_feature=142 141 142 134 134 141 142 154 154 139 134 139 141 154 163 136 163 139 142 142 23 134 143 38 154 163 137 137 125 58 134 134 141 137 135 163 137 163 125 104 54 134 120 125 142 134 134
split_gain=5.50837e+07 5.79956e+06 4.39945e+06 985624 763599 622836 463472 282124 217195 207941 175172 113184 92370.4 92047.9 91232.2 80057.2 61230.2 64389.4 61016.6 52783.4 39023.1 37953.7 30420.9 28937.1 28425.5 27945.8 22454.2 19096.9 14307.2 30317.3 13104.8 9582.47 8094.31 5899.49 5161.41 3363.07 4871.8 2844.71 4661.9 3799.12 1210.85 1130.17 1120.99 281.631 235.613 155.802 111.123
threshold=177.12500000000003 272.12500000000006 74.125000000000014 239.25000000000003 118.25000000000001 320.25000000000006 29.125000000000004 34.70000000000001 47.100000000000009 0.48333333333333339 204.25000000000003 0.48333333333333339 149.12500000000003 260.50000000000006 232.16666666666671 350.50000000000006 313.33333333333343 0.031947261663286007 51.625000000000007 297.37500000000006 0.20294117647058826 88.250000000000014 249.50000000000003 11.357731374988072 61.900000000000006 257.99715909090918 175.50000000000003 9.5000000000000018 0.59157142857142875 31.267857142857146 137.50000000000003 161.25000000000003 103.37500000000001 310.50000000000006 45.091969663941164 133.12500000000003 151.50000000000003 145.8909090909091 0.034181033091202594 917.00000000000011 1909.5744680851067 169.75000000000003 2757.0000000000005 0.086425000000000016 175.12500000000003 157.25000000000003 165.25000000000003
decision_type=2 2 2 2 2 2 2 2 2 2 2 2 2 2 2 2 2 2 2 2 2 2 2 2 2 2 2 2 2 2 2 2 2 2 2 2 2 2 2 2 2 2 2 2 2 2 2
left_child=2 3 6 7 11 19 27 -2 -5 10 14 21 30 16 -9 -7 17 -10 34 -3 42 22 -4 -22 -21 -12 -13 -1 29 -26 35 45 43 -11 -8 40 -37 38 -32 -39 -6 46 -15 -23 -43 -14 -33
right_child=1 5 4 8 12 15 18 9 13 33 25 26 31 20 -16 -17 -18 -19 -20 24 23 32 -24 -25 28 -27 -28 -29 -30 -31 37 41 -34 -35 -36 36 -38 39 -40 -41 -42 44 -44 -45 -46 -47 -48
leaf_value=-2.9211749520647081 -2.6679497491396389 1.7981008964538574 -1.6370432391918099 -1.5041470359719318 -0.89176786298208888 2.7096899486473918 -2.3210785834275867 0.13895819252235936 1.3099650846726338 1.6665484055228854 0.74182812132109077 -0.61686581946909425 -0.36721641680957134 3.042950426340103 1.5990073835402727 3.1281346236125076 2.8580728156226018 2.1560763115129973 -1.928365111351013 0.93266119956970217 0.83904493858939722 -1.2490035554340906 -0.4103591537475586 2.1503918877014749 2.218739142947177 1.7776266456567325 0.53611340835176657 -2.6537018091042204 2.4324132158188743 1.6338392197668969 -0.42040857999595166 -0.1935837999558033 -1.0879358452810368 3.0963749263597569 -1.4530745402404239 -0.74464080848693848 -0.24434890485578967 -0.080772719575512783 -0.72260351512581111 -0.50337323583347704 -0.54248127675056457 -0.07881063368500156 2.0263149284061632 -1.4419044692574794 -0.0074538729968480766 -0.27994238920509812 -0.12958101186273474
leaf_weight=1019 23 447 841 20 300 1410 1014 1075 1352 20 752 29 188 45 37 906 25 92 903 21 35 270 21 36 720 23 26 1252 467 140 94 83 210 20 25 72 28 28 141 68 27 133 35 364 61 93 86
leaf_count=1019 23 447 841 20 300 1410 1014 1075 1352 20 752 29 188 45 37 906 25 92 903 21 35 270 21 36 720 23 26 1252 467 140 94 83 210 20 25 72 28 28 141 68 27 133 35 364 61 93 86
internal_value=0 1.77948 -1.84729 0.897386 -1.0003 2.54857 -2.48201 0.440469 1.43887 0.48166 0.433892 -1.41587 -0.47642 1.47792 0.191711 2.87722 1.39936 1.36823 -2.13281 2.12044 2.20007 -1.45898 -1.60869 1.56418 2.2231 0.779304 -0.0722831 -2.77741 2.24137 2.12953 -0.700369 -0.210802 -1.30093 2.54761 -2.30444 -0.813728 -0.615756 -0.548138 -0.608548 -0.386298 -0.868122 -0.107585 2.68749 -1.36602 -0.0568289 -0.341594 -0.163843
internal_weight=0 7701 7376 3590 3163 4111 4213 1950 1640 1927 1887 1761 1402 1620 1112 2316 1469 1444 1942 1795 151 1706 862 71 1348 775 55 2271 1327 860 758 644 844 40 1039 427 100 331 235 96 327 363 80 634 194 281 169
internal_count=15077 7701 7376 3590 3163 4111 4213 1950 1640 1927 1887 1761 1402 1620 1112 2316 1469 1444 1942 1795 151 1706 862 71 1348 775 55 2271 1327 860 758 644 844 40 1039 427 100 331 235 96 327 363 80 634 194 281 169
is_linear=0
shrinkage=0.03


Tree=20
num_leaves=46
num_cat=0
split_feature=132 142 132 142 132 142 132 139 139 163 155 154 135 135 154 142 155 144 132 132 132 154 132 132 155 162 132 154 155 132 154 132 139 154 155 9 132 135 135 155 23 132 137 59 135
split_gain=5.2177e+07 5.47878e+06 4.33682e+06 827653 792656 619391 428678 180252 171419 151168 138083 137498 97712.7 97254.4 166004 95867.7 94068.6 125552 92042.7 81419.3 76243.3 73808.4 70255.1 67164.8 53952.2 53286.1 51212.8 32856.1 31227.4 30018.4 29539 29193.7 25102.4 21860.6 51972.3 20034.2 14343 12858.9 12118.2 7185.5 5147.02 4943.58 2210.78 1443.61 913.396
threshold=180.25000000000003 88.250000000000014 288.25000000000006 43.125000000000007 236.12500000000003 138.37500000000003 334.40350877192986 0.22500000000000003 0.48333333333333339 300.67895299145306 125.23450003851968 28.500000000000004 67.728450536580212 131.09032786339407 147.90000000000003 23.125000000000004 78.803806922681986 56.875000000000007 154.16666666666671 210.20000000000002 257.99715909090918 108.30000000000003 67.583333333333357 109.16666666666667 149.74912352499388 182.61009174311928 315.25000000000006 293.10000000000008 144.55863862008991 125.08333333333336 60.900000000000006 352.16666666666669 0.48333333333333339 262.30000000000001 112.39483962073389 89.000000000000014 258.26600985221683 60.979146459722962 119.43974128105133 34.164308781487044 8.5357142857142865 123.25000000000001 8.5000000000000018 92159.000000000015 36.089000561299436
decision_type=2 2 2 2 2 2 2 2 2 2 2 2 2 2 2 2 2 2 2 2 2 2 2 2 2 2 2 2 2 2 2 2 2 2 2 2 2 2 2 2 2 2 2 2 2
left_child=1 3 4 15 7 23 26 9 11 16 13 -7 36 20 -15 42 17 -2 21 -18 27 -13 37 32 25 -14 30 -6 -20 -10 -4 -8 39 34 -32 -26 -12 -5 -22 -3 -41 -25 -1 -35 -17
right_child=2 5 6 22 10 8 31 -9 29 -11 12 18 24 14 -16 44 19 -19 28 -21 38 -23 -24 41 35 -27 -28 -29 -30 -31 33 -33 -34 43 -36 -37 -38 -39 -40 40 -42 -43 -44 -45 -46
